{"learner":{"attributes":{"scikit_learn":"{\"_estimator_type\": \"regressor\"}"},"feature_names":["procrastination_level","coffee_cups","last_minute_panic","zodiac_sign"],"feature_types":["float","float","i","int"],"gradient_booster":{"model":{"gbtree_model_param":{"num_parallel_tree":"1","num_trees":"100"},"iteration_indptr":[0,1,2,3,4,5,6,7,8,9,10,11,12,13,14,15,16,17,18,19,20,21,22,23,24,25,26,27,28,29,30,31,32,33,34,35,36,37,38,39,40,41,42,43,44,45,46,47,48,49,50,51,52,53,54,55,56,57,58,59,60,61,62,63,64,65,66,67,68,69,70,71,72,73,74,75,76,77,78,79,80,81,82,83,84,85,86,87,88,89,90,91,92,93,94,95,96,97,98,99,100],"tree_info":[0,0,0,0,0,0,0,0,0,0,0,0,0,0,0,0,0,0,0,0,0,0,0,0,0,0,0,0,0,0,0,0,0,0,0,0,0,0,0,0,0,0,0,0,0,0,0,0,0,0,0,0,0,0,0,0,0,0,0,0,0,0,0,0,0,0,0,0,0,0,0,0,0,0,0,0,0,0,0,0,0,0,0,0,0,0,0,0,0,0,0,0,0,0,0,0,0,0,0,0],"trees":[{"base_weights":[-2.4434902E-8,2.8507397E-2,-1.30006615E-2,3.8811818E-2,-5.4210074E-2,-3.62489E-2,8.892189E-3,2.6939433E-2,1.1689565E-1,-1.24929406E-1,-1.4136211E-2,-8.1230566E-2,-1.7052105E-2,-1.3112225E-2,3.8707417E-2,7.7641085E-2,-1.0874644E-2,-5.4465134E-2,2.2464198E-1,-7.548235E-2,-3.469467E-2,4.8960205E-2,-8.968336E-2,-4.296308E-2,-1.0774935E-1,1.0291682E-2,-3.8504317E-2,-2.6115784E-2,1.0799021E-1,7.7633016E-2,-3.8189057E-2,3.2322078E-3,9.8196894E-2,4.6967302E-4,-4.492437E-2,-1.4845316E-1,3.3876758E-2,1.2307059E-1,3.1253886E-1,1.2589216E-1,-5.5982355E-2,5.5571247E-2,-1.9055804E-3,-4.4535946E-2,6.2676477E-3,-2.668758E-1,2.4972655E-2,-4.1429467E-2,-2.295098E-1,6.9962464E-2,-4.16517E-2,-4.935502E-2,4.9701538E-2,-1.2127542E-2,-1.3319415E-1,1.9070607E-2,6.587732E-2,1.3866581E-1,6.258567E-2,-1.1295543E-1,4.5963407E-2,-1.766544E-2,7.526765E-2,3.792433E-2,-1.1089541E-2,-8.197457E-3,3.9599743E-2,2.3218224E-2,-6.433955E-2,-7.532157E-2,-2.3314508E-2,-7.232157E-2,3.5964057E-2,7.208549E-2,1.4640526E-3,1.03687264E-1,7.178432E-3,9.571243E-3,6.1178435E-2,1.751765E-2,-1.2535945E-2,-9.6514516E-2,-3.948235E-2,-3.0410807E-3,3.802017E-2,1.1812257E-2,-1.9991338E-2,-2.898235E-2,-7.582443E-2,-2.1139027E-3,4.8059266E-2,-2.1447752E-2,1.391046E-2,-2.0096427E-2,1.0335875E-2,4.187732E-2,-1.9035945E-2,1.0544658E-2,-1.5972106E-2,-6.1589543E-2,9.964054E-3,-2.1551257E-2,5.2017655E-2,7.20855E-2,2.396079E-2,2.3289528E-2,1.3251964E-2,6.5062395E-3,-6.8089545E-2,4.179974E-2,-5.8535945E-2],"categories":[],"categories_nodes":[],"categories_segments":[],"categories_sizes":[],"default_left":[0,0,0,0,0,0,0,0,0,0,0,0,0,0,0,0,0,0,0,0,0,0,0,0,0,0,0,0,0,0,0,0,0,0,0,0,0,0,0,0,0,0,0,0,0,0,0,0,0,0,0,0,0,0,0,0,0,0,0,0,0,0,0,0,0,0,0,0,0,0,0,0,0,0,0,0,0,0,0,0,0,0,0,0,0,0,0,0,0,0,0,0,0,0,0,0,0,0,0,0,0,0,0,0,0,0,0,0,0,0,0],"id":0,"left_children":[1,3,5,7,9,11,13,15,17,19,21,23,25,27,29,31,33,35,37,-1,39,41,43,45,47,49,51,53,55,57,59,61,63,65,67,69,71,73,75,77,-1,-1,79,-1,-1,81,83,85,87,89,91,93,95,97,99,101,-1,103,105,107,109,-1,-1,-1,-1,-1,-1,-1,-1,-1,-1,-1,-1,-1,-1,-1,-1,-1,-1,-1,-1,-1,-1,-1,-1,-1,-1,-1,-1,-1,-1,-1,-1,-1,-1,-1,-1,-1,-1,-1,-1,-1,-1,-1,-1,-1,-1,-1,-1,-1,-1],"loss_changes":[2.9463863E-1,2.143406E-1,2.7822006E-1,2.0265412E-1,7.758588E-2,2.2744343E-1,1.8551832E-1,3.7278813E-1,5.4767644E-1,1.0557848E-1,9.495925E-2,7.554054E-2,1.1008762E-1,2.5950658E-1,3.6215365E-1,1.26634E-1,4.328344E-2,1.04666054E-1,1.2223631E-1,0E0,1.9425926E-1,7.660334E-2,6.1588004E-2,5.238615E-1,3.6194783E-1,2.6017272E-1,1.0294804E-1,2.200647E-1,1.5458827E-1,6.479204E-2,2.6315454E-1,3.0706778E-1,2.5257903E-1,3.143498E-1,5.972613E-1,2.4042293E-2,1.9442543E-1,1.3736351E-1,7.7668905E-2,2.2831626E-2,0E0,0E0,2.408256E-2,0E0,0E0,1.7003715E-2,9.775017E-2,6.5768465E-2,2.4997234E-2,2.721357E-1,1.2151127E-1,1.4122035E-1,1.3091452E-1,2.584352E-1,2.1079677E-1,1.5274692E-1,0E0,7.043141E-2,1.4855117E-2,3.4263542E-1,4.7738084E-1,0E0,0E0,0E0,0E0,0E0,0E0,0E0,0E0,0E0,0E0,0E0,0E0,0E0,0E0,0E0,0E0,0E0,0E0,0E0,0E0,0E0,0E0,0E0,0E0,0E0,0E0,0E0,0E0,0E0,0E0,0E0,0E0,0E0,0E0,0E0,0E0,0E0,0E0,0E0,0E0,0E0,0E0,0E0,0E0,0E0,0E0,0E0,0E0,0E0,0E0],"parents":[2147483647,0,0,1,1,2,2,3,3,4,4,5,5,6,6,7,7,8,8,9,9,10,10,11,11,12,12,13,13,14,14,15,15,16,16,17,17,18,18,20,20,21,21,22,22,23,23,24,24,25,25,26,26,27,27,28,28,29,29,30,30,31,31,32,32,33,33,34,34,35,35,36,36,37,37,38,38,39,39,42,42,45,45,46,46,47,47,48,48,49,49,50,50,51,51,52,52,53,53,54,54,55,55,57,57,58,58,59,59,60,60],"right_children":[2,4,6,8,10,12,14,16,18,20,22,24,26,28,30,32,34,36,38,-1,40,42,44,46,48,50,52,54,56,58,60,62,64,66,68,70,72,74,76,78,-1,-1,80,-1,-1,82,84,86,88,90,92,94,96,98,100,102,-1,104,106,108,110,-1,-1,-1,-1,-1,-1,-1,-1,-1,-1,-1,-1,-1,-1,-1,-1,-1,-1,-1,-1,-1,-1,-1,-1,-1,-1,-1,-1,-1,-1,-1,-1,-1,-1,-1,-1,-1,-1,-1,-1,-1,-1,-1,-1,-1,-1,-1,-1,-1,-1],"split_conditions":[-4.853576E-1,1.1E1,1.9194463E-1,1.478244E0,1E0,2.1316977E-1,9.1169715E-1,-2.3682183E-1,-1.183885E0,-1.0943547E0,-8.346213E-1,-1.3609391E-1,1E0,1.1E1,1.6102245E0,-1.0943547E0,1.0494776E0,1E0,4E0,-7.548235E-2,-2.3682183E-1,-6.6558826E-1,1.0494776E0,4E0,8E0,5E0,1E1,1E1,5.624334E-1,2E0,7E0,1E1,9E0,9E0,6E0,3E0,2E0,1E0,1E1,-6.6558826E-1,-5.5982355E-2,5.5571247E-2,-1.183885E0,-4.4535946E-2,6.2676477E-3,1E0,1E1,-1.0943547E0,-1.0943547E0,-6.6558826E-1,-2.3682183E-1,1.6102245E0,1.2609608E0,1.0494776E0,5.624334E-1,1.478244E0,6.587732E-2,1E0,1E0,1E0,1E1,-1.766544E-2,7.526765E-2,3.792433E-2,-1.1089541E-2,-8.197457E-3,3.9599743E-2,2.3218224E-2,-6.433955E-2,-7.532157E-2,-2.3314508E-2,-7.232157E-2,3.5964057E-2,7.208549E-2,1.4640526E-3,1.03687264E-1,7.178432E-3,9.571243E-3,6.1178435E-2,1.751765E-2,-1.2535945E-2,-9.6514516E-2,-3.948235E-2,-3.0410807E-3,3.802017E-2,1.1812257E-2,-1.9991338E-2,-2.898235E-2,-7.582443E-2,-2.1139027E-3,4.8059266E-2,-2.1447752E-2,1.391046E-2,-2.0096427E-2,1.0335875E-2,4.187732E-2,-1.9035945E-2,1.0544658E-2,-1.5972106E-2,-6.1589543E-2,9.964054E-3,-2.1551257E-2,5.2017655E-2,7.20855E-2,2.396079E-2,2.3289528E-2,1.3251964E-2,6.5062395E-3,-6.8089545E-2,4.179974E-2,-5.8535945E-2],"split_indices":[0,3,1,1,2,0,0,1,0,1,0,0,2,3,0,1,1,2,3,0,1,1,1,3,3,3,3,3,0,3,3,3,3,3,3,3,3,3,3,1,0,0,0,0,0,2,3,1,1,1,1,0,0,1,0,1,0,2,2,2,3,0,0,0,0,0,0,0,0,0,0,0,0,0,0,0,0,0,0,0,0,0,0,0,0,0,0,0,0,0,0,0,0,0,0,0,0,0,0,0,0,0,0,0,0,0,0,0,0,0,0],"split_type":[0,0,0,0,0,0,0,0,0,0,0,0,0,0,0,0,0,0,0,0,0,0,0,0,0,0,0,0,0,0,0,0,0,0,0,0,0,0,0,0,0,0,0,0,0,0,0,0,0,0,0,0,0,0,0,0,0,0,0,0,0,0,0,0,0,0,0,0,0,0,0,0,0,0,0,0,0,0,0,0,0,0,0,0,0,0,0,0,0,0,0,0,0,0,0,0,0,0,0,0,0,0,0,0,0,0,0,0,0,0,0],"sum_hessian":[7.93E2,2.48E2,5.45E2,2.21E2,2.7E1,2.64E2,2.81E2,1.93E2,2.8E1,9E0,1.8E1,7.8E1,1.86E2,1.62E2,1.19E2,8.2E1,1.11E2,1.1E1,1.7E1,3E0,6E0,1E1,8E0,3.3E1,4.5E1,8.2E1,1.04E2,1.47E2,1.5E1,7.9E1,4E1,1.8E1,6.4E1,8.4E1,2.7E1,5E0,6E0,9E0,8E0,3E0,3E0,2E0,8E0,5E0,3E0,7E0,2.6E1,3E1,1.5E1,3.8E1,4.4E1,9.3E1,1.1E1,1.31E2,1.6E1,9E0,6E0,1.4E1,6.5E1,2.1E1,1.9E1,1.5E1,3E0,5.3E1,1.1E1,7E1,1.4E1,1.6E1,1.1E1,1E0,4E0,1E0,5E0,4E0,5E0,7E0,1E0,2E0,1E0,3E0,5E0,4E0,3E0,2E1,6E0,7E0,2.3E1,3E0,1.2E1,2.1E1,1.7E1,3.3E1,1.1E1,7.7E1,1.6E1,6E0,5E0,6.1E1,7E1,1.1E1,5E0,6E0,3E0,4E0,1E1,3.4E1,3.1E1,1E1,1.1E1,1.4E1,5E0],"tree_param":{"num_deleted":"0","num_feature":"4","num_nodes":"111","size_leaf_vector":"1"}},{"base_weights":[2.108366E-5,-5.6144763E-3,3.3344213E-2,-2.8917432E-4,-3.6864087E-2,-6.989709E-2,4.605094E-2,2.0342272E-2,-1.00310715E-2,-2.687737E-2,-1.0086256E-1,1.1421688E-2,-1.6667262E-1,1.3610668E-1,1.9911023E-2,4.5928374E-2,-6.5773795E-3,-2.5987495E-2,2.2078648E-2,-5.3363126E-2,4.094183E-2,3.770249E-2,-1.302136E-1,-6.1473336E-2,7.159939E-2,-6.793248E-2,-3.1423103E-2,1.7495447E-1,6.6954736E-3,-7.725174E-2,4.13667E-2,-2.2048203E-2,6.6435575E-2,-3.5067372E-2,2.6703479E-2,-5.95703E-2,-1.1661135E-2,3.3469692E-2,-6.2598266E-2,-1.6035384E-2,-1.2725502E-1,-5.1177815E-2,9.595775E-2,-8.104877E-2,-2.6468815E-2,-6.862019E-2,5.817574E-2,-4.7424216E-2,3.328382E-2,9.3504354E-2,7.6469354E-2,5.9599757E-2,-2.0444676E-1,1.0950518E-1,2.450912E-2,-2.5879303E-2,2.1017764E-2,3.946038E-2,9.767206E-3,4.1555744E-3,-3.0984659E-2,1.5105991E-2,-2.4917595E-2,-2.8830044E-2,-1.256482E-2,1.078059E-2,-6.857177E-3,1.2791093E-2,-8.119079E-3,-5.0427213E-2,2.9114347E-2,8.389866E-3,-2.7610792E-2,-7.525596E-2,-2.7815716E-2,1.1209653E-2,-3.4930285E-2,-3.7039262E-3,5.4469846E-2,-3.5715107E-2,1.5867054E-2,-6.402334E-2,1.5234146E-2,-3.654118E-2,3.9288383E-2,4.6765655E-2,4.5707525E-4,-8.4917694E-2,5.1875792E-2,5.0680444E-2,-4.3471564E-2,-3.1256527E-2,1.7715428E-2],"categories":[],"categories_nodes":[],"categories_segments":[],"categories_sizes":[],"default_left":[0,0,0,0,0,0,0,0,0,0,0,0,0,0,0,0,0,0,0,0,0,0,0,0,0,0,0,0,0,0,0,0,0,0,0,0,0,0,0,0,0,0,0,0,0,0,0,0,0,0,0,0,0,0,0,0,0,0,0,0,0,0,0,0,0,0,0,0,0,0,0,0,0,0,0,0,0,0,0,0,0,0,0,0,0,0,0,0,0,0,0,0,0],"id":1,"left_children":[1,3,5,7,9,11,13,15,17,19,21,23,25,27,29,31,33,35,37,39,41,-1,43,-1,45,-1,47,49,-1,51,53,55,57,59,61,63,65,67,69,71,73,75,77,-1,79,81,-1,-1,-1,83,-1,85,87,89,91,-1,-1,-1,-1,-1,-1,-1,-1,-1,-1,-1,-1,-1,-1,-1,-1,-1,-1,-1,-1,-1,-1,-1,-1,-1,-1,-1,-1,-1,-1,-1,-1,-1,-1,-1,-1,-1,-1],"loss_changes":[1.4929605E-1,1.13150604E-1,1.540826E-1,1.17179915E-1,6.05634E-2,1.0420935E-1,2.397571E-1,1.291019E-1,2.0346683E-1,1.5845792E-1,1.0280305E-1,1.188188E-1,4.1386858E-2,9.776521E-2,1.7205578E-1,1.3528968E-1,8.816818E-2,1.26802E-1,1.2941685E-1,1.7172714E-1,1.3161206E-1,0E0,1.6707678E-1,0E0,1.3336812E-1,0E0,7.1634844E-2,8.68597E-2,0E0,2.7328742E-1,7.4275665E-2,1.420836E-1,1.5892008E-1,1.6828166E-1,1.15804024E-1,4.7018856E-2,1.00472815E-1,6.608023E-2,2.8577608E-1,1.4637224E-1,6.6381395E-2,6.213086E-2,1.5058964E-1,0E0,6.507401E-2,7.998966E-2,0E0,0E0,0E0,9.6599415E-2,0E0,4.449776E-2,2.8627098E-1,2.2103325E-1,2.5065547E-1,0E0,0E0,0E0,0E0,0E0,0E0,0E0,0E0,0E0,0E0,0E0,0E0,0E0,0E0,0E0,0E0,0E0,0E0,0E0,0E0,0E0,0E0,0E0,0E0,0E0,0E0,0E0,0E0,0E0,0E0,0E0,0E0,0E0,0E0,0E0,0E0,0E0,0E0],"parents":[2147483647,0,0,1,1,2,2,3,3,4,4,5,5,6,6,7,7,8,8,9,9,10,10,11,11,12,12,13,13,14,14,15,15,16,16,17,17,18,18,19,19,20,20,22,22,24,24,26,26,27,27,29,29,30,30,31,31,32,32,33,33,34,34,35,35,36,36,37,37,38,38,39,39,40,40,41,41,42,42,44,44,45,45,49,49,51,51,52,52,53,53,54,54],"right_children":[2,4,6,8,10,12,14,16,18,20,22,24,26,28,30,32,34,36,38,40,42,-1,44,-1,46,-1,48,50,-1,52,54,56,58,60,62,64,66,68,70,72,74,76,78,-1,80,82,-1,-1,-1,84,-1,86,88,90,92,-1,-1,-1,-1,-1,-1,-1,-1,-1,-1,-1,-1,-1,-1,-1,-1,-1,-1,-1,-1,-1,-1,-1,-1,-1,-1,-1,-1,-1,-1,-1,-1,-1,-1,-1,-1,-1,-1],"split_conditions":[1.478244E0,1.0494776E0,-1.183885E0,-4.853576E-1,1.6102245E0,6E0,-4.853576E-1,-2.3682183E-1,1.9194463E-1,5.624334E-1,2E0,2E0,9E0,1E1,-1.3609391E-1,-1.0943547E0,6E0,2.1316977E-1,1E1,7E0,5E0,3.770249E-2,6E0,-6.1473336E-2,1E0,-6.793248E-2,1E0,4E0,6.6954736E-3,4E0,2.1316977E-1,1E0,4E0,3E0,1.1E1,4E0,5.624334E-1,1.6102245E0,1.1E1,-1.3609391E-1,-1.183885E0,4E0,1E0,-8.104877E-2,1E0,3E0,5.817574E-2,-4.7424216E-2,3.328382E-2,-8.346213E-1,7.6469354E-2,2E0,1.1E1,1E1,5.624334E-1,-2.5879303E-2,2.1017764E-2,3.946038E-2,9.767206E-3,4.1555744E-3,-3.0984659E-2,1.5105991E-2,-2.4917595E-2,-2.8830044E-2,-1.256482E-2,1.078059E-2,-6.857177E-3,1.2791093E-2,-8.119079E-3,-5.0427213E-2,2.9114347E-2,8.389866E-3,-2.7610792E-2,-7.525596E-2,-2.7815716E-2,1.1209653E-2,-3.4930285E-2,-3.7039262E-3,5.4469846E-2,-3.5715107E-2,1.5867054E-2,-6.402334E-2,1.5234146E-2,-3.654118E-2,3.9288383E-2,4.6765655E-2,4.5707525E-4,-8.4917694E-2,5.1875792E-2,5.0680444E-2,-4.3471564E-2,-3.1256527E-2,1.7715428E-2],"split_indices":[1,1,0,0,0,3,0,1,1,0,3,3,3,3,0,1,3,0,3,3,3,0,3,0,2,0,2,3,0,3,0,2,3,3,3,3,0,0,3,0,0,3,2,0,2,3,0,0,0,0,0,3,3,3,0,0,0,0,0,0,0,0,0,0,0,0,0,0,0,0,0,0,0,0,0,0,0,0,0,0,0,0,0,0,0,0,0,0,0,0,0,0,0],"split_type":[0,0,0,0,0,0,0,0,0,0,0,0,0,0,0,0,0,0,0,0,0,0,0,0,0,0,0,0,0,0,0,0,0,0,0,0,0,0,0,0,0,0,0,0,0,0,0,0,0,0,0,0,0,0,0,0,0,0,0,0,0,0,0,0,0,0,0,0,0,0,0,0,0,0,0,0,0,0,0,0,0,0,0,0,0,0,0,0,0,0,0,0,0],"sum_hessian":[7.93E2,6.79E2,1.14E2,5.81E2,9.8E1,1.2E1,1.02E2,1.86E2,3.95E2,8.6E1,1.2E1,7E0,5E0,2.2E1,8E1,9.5E1,9.1E1,2.64E2,1.31E2,6.2E1,2.4E1,1E0,1.1E1,1E0,6E0,3E0,2E0,1.6E1,6E0,1.4E1,6.6E1,2.2E1,7.3E1,4.9E1,4.2E1,7.8E1,1.86E2,1.16E2,1.5E1,4.2E1,2E1,9E0,1.5E1,4E0,7E0,3E0,3E0,1E0,1E0,9E0,7E0,7E0,7E0,1.2E1,5.4E1,1.3E1,9E0,2.4E1,4.9E1,2.9E1,2E1,3.5E1,7E0,2.4E1,5.4E1,3.5E1,1.51E2,1.01E2,1.5E1,9E0,6E0,2.7E1,1.5E1,3E0,1.7E1,4E0,5E0,7E0,8E0,3E0,4E0,1E0,2E0,1E0,8E0,2E0,5E0,6E0,1E0,1E1,2E0,1.1E1,4.3E1],"tree_param":{"num_deleted":"0","num_feature":"4","num_nodes":"93","size_leaf_vector":"1"}},{"base_weights":[-2.9409357E-4,1.395883E-2,-6.7935144E-3,1.9782864E-2,-3.271596E-2,-1.8332645E-2,4.074085E-3,4.0340915E-2,7.453569E-3,-1.10215835E-1,-1.520699E-2,-2.5995145E-2,3.2763645E-2,-1.7191739E-3,6.1181527E-2,6.155964E-3,5.957474E-2,-5.8051E-3,5.840244E-2,-5.2675977E-2,2.2690076E-2,3.3353485E-2,-4.656684E-2,-5.5460013E-2,-1.11900475E-2,5.9440132E-2,-5.128657E-2,6.53095E-3,-8.208625E-2,1.0055454E-1,-6.005301E-2,-6.907628E-2,1.0244342E-1,7.576484E-2,-2.799522E-2,-6.516246E-2,2.647508E-3,-4.17905E-2,1.2195316E-1,1.2380944E-1,-8.1864364E-2,-4.4598762E-2,-1.942423E-2,-1.7858636E-1,-4.0596146E-2,5.5061985E-2,-2.141303E-2,1.6051225E-2,-1.1996197E-1,4.6516415E-2,-4.8667286E-3,-4.9813863E-2,-6.929842E-2,7.913419E-2,4.326173E-2,-5.918215E-2,-4.3039024E-3,1.3275188E-3,-6.504494E-2,6.311317E-2,1.1469653E-2,8.529211E-3,3.7187472E-2,-3.49391E-2,3.3511873E-2,2.534523E-2,-5.6387372E-2,9.20766E-3,-2.0208068E-3,-5.2252334E-2,-4.1764667E-3,1.9718325E-2,5.126265E-2,6.110355E-2,9.886589E-3,-5.0885733E-2,9.953549E-3,-3.1998105E-2,1.8399833E-3,-6.643181E-2,-2.4112059E-2,-7.1203946E-3,-3.603465E-2,6.8562613E-3,5.586945E-2,-1.6584171E-2,-9.861987E-4,-6.108133E-2,3.069251E-2,-4.3783627E-2,1.9910515E-3,-3.8188383E-2,2.2914736E-2,-6.965843E-3,5.55924E-3,-3.2836977E-2,8.021641E-3,-6.2956035E-2,2.2237891E-2,8.148648E-3,-1.3447206E-2],"categories":[],"categories_nodes":[],"categories_segments":[],"categories_sizes":[],"default_left":[0,0,0,0,0,0,0,0,0,0,0,0,0,0,0,0,0,0,0,0,0,0,0,0,0,0,0,0,0,0,0,0,0,0,0,0,0,0,0,0,0,0,0,0,0,0,0,0,0,0,0,0,0,0,0,0,0,0,0,0,0,0,0,0,0,0,0,0,0,0,0,0,0,0,0,0,0,0,0,0,0,0,0,0,0,0,0,0,0,0,0,0,0,0,0,0,0,0,0,0,0],"id":2,"left_children":[1,3,5,7,9,11,13,15,17,19,21,23,25,27,29,31,33,35,37,-1,-1,39,41,43,45,-1,47,49,51,53,55,57,59,61,63,65,67,69,71,73,75,-1,77,79,81,83,85,87,89,91,93,95,-1,-1,97,-1,99,-1,-1,-1,-1,-1,-1,-1,-1,-1,-1,-1,-1,-1,-1,-1,-1,-1,-1,-1,-1,-1,-1,-1,-1,-1,-1,-1,-1,-1,-1,-1,-1,-1,-1,-1,-1,-1,-1,-1,-1,-1,-1,-1,-1],"loss_changes":[7.364762E-2,6.833427E-2,6.854454E-2,5.596882E-2,3.6318354E-2,1.04605906E-1,9.340155E-2,5.420637E-2,9.491103E-2,7.4025825E-2,3.810155E-2,1.0014857E-1,4.966404E-1,1.7093694E-1,1.3014619E-1,2.3163792E-1,7.7262685E-2,5.636566E-2,1.8974914E-1,0E0,0E0,1.14356995E-1,3.8679503E-2,1.336704E-1,1.0615952E-1,0E0,1.1291235E-1,1.06869884E-1,1.03828415E-1,1.75622E-1,5.2700512E-2,1.9642323E-1,8.898474E-2,9.912947E-2,1.2424224E-1,2.7314225E-1,2.6259407E-2,4.1848026E-2,3.8280934E-2,3.6826305E-2,5.6105483E-2,0E0,2.9638166E-2,1.5871853E-2,9.100616E-2,8.446209E-2,8.269112E-2,2.6713973E-1,4.0442303E-2,2.7965748E-1,7.901211E-2,9.880875E-2,0E0,0E0,1.4055233E-1,0E0,8.8675665E-3,0E0,0E0,0E0,0E0,0E0,0E0,0E0,0E0,0E0,0E0,0E0,0E0,0E0,0E0,0E0,0E0,0E0,0E0,0E0,0E0,0E0,0E0,0E0,0E0,0E0,0E0,0E0,0E0,0E0,0E0,0E0,0E0,0E0,0E0,0E0,0E0,0E0,0E0,0E0,0E0,0E0,0E0,0E0,0E0],"parents":[2147483647,0,0,1,1,2,2,3,3,4,4,5,5,6,6,7,7,8,8,9,9,10,10,11,11,12,12,13,13,14,14,15,15,16,16,17,17,18,18,21,21,22,22,23,23,24,24,26,26,27,27,28,28,29,29,30,30,31,31,32,32,33,33,34,34,35,35,36,36,37,37,38,38,39,39,40,40,42,42,43,43,44,44,45,45,46,46,47,47,48,48,49,49,50,50,51,51,54,54,56,56],"right_children":[2,4,6,8,10,12,14,16,18,20,22,24,26,28,30,32,34,36,38,-1,-1,40,42,44,46,-1,48,50,52,54,56,58,60,62,64,66,68,70,72,74,76,-1,78,80,82,84,86,88,90,92,94,96,-1,-1,98,-1,100,-1,-1,-1,-1,-1,-1,-1,-1,-1,-1,-1,-1,-1,-1,-1,-1,-1,-1,-1,-1,-1,-1,-1,-1,-1,-1,-1,-1,-1,-1,-1,-1,-1,-1,-1,-1,-1,-1,-1,-1,-1,-1,-1,-1],"split_conditions":[-4.853576E-1,1.1E1,1.9194463E-1,-2.3682183E-1,-1.0943547E0,1.6102245E0,1.1E1,-1.183885E0,1.478244E0,1E0,-2.3682183E-1,4E0,3E0,1E1,1.2609608E0,1E0,9E0,1E0,-1.183885E0,-5.2675977E-2,2.2690076E-2,-8.346213E-1,1.9194463E-1,-1.3609391E-1,5E0,5.9440132E-2,7E0,6.207111E-1,1.6102245E0,6.207111E-1,6.207111E-1,6E0,4E0,5E0,1E1,-1.183885E0,3E0,2E0,4E0,-6.6558826E-1,-6.6558826E-1,-4.4598762E-2,1E0,1E0,1.2609608E0,-2.3682183E-1,2.1316977E-1,4E0,1.1E1,-1.3609391E-1,9.1169715E-1,5.624334E-1,-6.929842E-2,7.913419E-2,1.0494776E0,-5.918215E-2,1.478244E0,1.3275188E-3,-6.504494E-2,6.311317E-2,1.1469653E-2,8.529211E-3,3.7187472E-2,-3.49391E-2,3.3511873E-2,2.534523E-2,-5.6387372E-2,9.20766E-3,-2.0208068E-3,-5.2252334E-2,-4.1764667E-3,1.9718325E-2,5.126265E-2,6.110355E-2,9.886589E-3,-5.0885733E-2,9.953549E-3,-3.1998105E-2,1.8399833E-3,-6.643181E-2,-2.4112059E-2,-7.1203946E-3,-3.603465E-2,6.8562613E-3,5.586945E-2,-1.6584171E-2,-9.861987E-4,-6.108133E-2,3.069251E-2,-4.3783627E-2,1.9910515E-3,-3.8188383E-2,2.2914736E-2,-6.965843E-3,5.55924E-3,-3.2836977E-2,8.021641E-3,-6.2956035E-2,2.2237891E-2,8.148648E-3,-1.3447206E-2],"split_indices":[0,3,1,1,1,0,3,0,1,2,1,3,3,3,0,2,3,3,0,0,0,0,1,0,3,0,3,1,0,1,1,3,3,3,3,0,3,3,3,1,1,0,2,2,0,1,0,3,3,0,0,0,0,0,1,0,1,0,0,0,0,0,0,0,0,0,0,0,0,0,0,0,0,0,0,0,0,0,0,0,0,0,0,0,0,0,0,0,0,0,0,0,0,0,0,0,0,0,0,0,0],"split_type":[0,0,0,0,0,0,0,0,0,0,0,0,0,0,0,0,0,0,0,0,0,0,0,0,0,0,0,0,0,0,0,0,0,0,0,0,0,0,0,0,0,0,0,0,0,0,0,0,0,0,0,0,0,0,0,0,0,0,0,0,0,0,0,0,0,0,0,0,0,0,0,0,0,0,0,0,0,0,0,0,0,0,0,0,0,0,0,0,0,0,0,0,0,0,0,0,0,0,0,0,0],"sum_hessian":[7.93E2,2.48E2,5.45E2,2.21E2,2.7E1,2.64E2,2.81E2,8.2E1,1.39E2,4E0,2.3E1,2.3E2,3.4E1,2.56E2,2.5E1,3E1,5.2E1,1.11E2,2.8E1,3E0,1E0,9E0,1.4E1,7.6E1,1.54E2,1.1E1,2.3E1,2.33E2,2.3E1,1.9E1,6E0,1.7E1,1.3E1,4.4E1,8E0,1.3E1,9.8E1,1.1E1,1.7E1,5E0,4E0,2E0,1.2E1,7E0,6.9E1,2E1,1.34E2,1.2E1,1.1E1,5.1E1,1.82E2,2E1,3E0,4E0,1.5E1,1E0,5E0,1.2E1,5E0,4E0,9E0,2.3E1,2.1E1,5E0,3E0,6E0,7E0,2.4E1,7.4E1,1E0,1E1,9E0,8E0,2E0,3E0,2E0,2E0,2E0,1E1,4E0,3E0,5.8E1,1.1E1,1.7E1,3E0,4.6E1,8.8E1,3E0,9E0,9E0,2E0,7E0,4.4E1,1.02E2,8E1,1.1E1,9E0,1E0,1.4E1,3E0,2E0],"tree_param":{"num_deleted":"0","num_feature":"4","num_nodes":"101","size_leaf_vector":"1"}},{"base_weights":[-5.421098E-4,-3.9844457E-3,1.9817287E-2,-5.0831155E-4,-2.4379656E-2,7.070948E-2,7.0179556E-3,6.5409266E-3,-1.1885968E-2,-1.652988E-2,-7.5037405E-2,-4.4414487E-2,8.738249E-2,-1.4272516E-2,4.112433E-2,-1.4208743E-3,4.9787503E-2,-4.6443578E-2,-8.389279E-4,-3.274946E-2,2.5004655E-2,3.1213226E-2,-9.86312E-2,1.2201427E-1,2.3801664E-2,-7.909646E-2,4.4738542E-2,1.1607052E-1,-3.2041762E-2,6.2468657E-3,-3.0392315E-2,-8.410884E-3,7.53717E-2,-7.411314E-2,-1.6221805E-2,4.3235175E-2,-9.834069E-3,-4.450573E-3,-8.9135304E-2,-2.2733396E-2,8.7828845E-2,-2.097709E-1,-1.683999E-2,5.3393323E-2,4.0625393E-2,-6.1419964E-2,7.664914E-2,-7.69676E-2,-4.7538646E-2,9.380049E-2,-1.1830926E-3,6.580241E-2,2.0563965E-1,-1.22728586E-1,3.1086266E-2,3.221169E-3,-1.1092815E-2,5.8562816E-3,-3.6065057E-2,3.6511082E-2,-1.628387E-2,6.552447E-3,5.42256E-2,6.0081948E-3,-2.5050366E-2,2.5667122E-2,2.498439E-3,-8.564091E-3,3.4617845E-3,-3.526627E-2,5.1203105E-3,-5.7868678E-2,-1.8337648E-2,8.688119E-3,-1.3249171E-2,9.883851E-3,3.1287476E-2,-1.3974072E-2,-7.167706E-2,-2.9124245E-2,1.5216201E-2,2.9816724E-2,-8.4883915E-3,-5.363006E-2,4.3593112E-2,2.9356446E-2,-4.4068876E-3,1.0088094E-2,-5.1794935E-2,3.9320502E-2,-6.419241E-2,-8.284314E-2,2.3238486E-2,-2.5741601E-2,3.0350385E-2,6.670284E-2,1.8318586E-2,-1.8938486E-2,-4.3758936E-2,3.2658063E-2,-2.0801884E-3],"categories":[],"categories_nodes":[],"categories_segments":[],"categories_sizes":[],"default_left":[0,0,0,0,0,0,0,0,0,0,0,0,0,0,0,0,0,0,0,0,0,0,0,0,0,0,0,0,0,0,0,0,0,0,0,0,0,0,0,0,0,0,0,0,0,0,0,0,0,0,0,0,0,0,0,0,0,0,0,0,0,0,0,0,0,0,0,0,0,0,0,0,0,0,0,0,0,0,0,0,0,0,0,0,0,0,0,0,0,0,0,0,0,0,0,0,0,0,0,0,0],"id":3,"left_children":[1,3,5,7,9,11,13,15,17,19,21,-1,23,25,27,29,31,33,35,37,39,-1,41,43,45,47,49,51,53,55,57,59,61,-1,63,65,67,69,71,73,75,77,79,-1,81,83,85,-1,87,89,91,93,95,97,99,-1,-1,-1,-1,-1,-1,-1,-1,-1,-1,-1,-1,-1,-1,-1,-1,-1,-1,-1,-1,-1,-1,-1,-1,-1,-1,-1,-1,-1,-1,-1,-1,-1,-1,-1,-1,-1,-1,-1,-1,-1,-1,-1,-1,-1,-1],"loss_changes":[5.5725567E-2,4.819722E-2,7.4413165E-2,4.675636E-2,3.8127184E-2,9.682585E-2,6.811803E-2,1.2402618E-1,8.509336E-2,5.9428416E-2,6.518975E-2,0E0,4.5538023E-2,2.2540776E-1,2.0112582E-1,6.794423E-2,8.401562E-2,3.2336718E-1,6.782215E-2,1.0012965E-1,7.6974265E-2,0E0,1.0555049E-1,5.653687E-2,4.5241516E-2,1.4461249E-1,6.9954135E-2,6.7512885E-2,1.1258791E-1,4.7365986E-2,2.8928658E-1,1.1403326E-1,2.1605222E-1,0E0,1.18735634E-1,4.2130105E-2,5.712336E-2,1.0665958E-1,4.9241588E-2,1.7896365E-2,6.502703E-3,1.2658045E-2,4.8292983E-2,0E0,3.1162139E-2,1.2301335E-1,1.3058852E-2,0E0,2.596737E-1,2.0009707E-1,3.8900205E-1,7.83827E-2,9.127557E-4,1.8225163E-3,3.623863E-2,0E0,0E0,0E0,0E0,0E0,0E0,0E0,0E0,0E0,0E0,0E0,0E0,0E0,0E0,0E0,0E0,0E0,0E0,0E0,0E0,0E0,0E0,0E0,0E0,0E0,0E0,0E0,0E0,0E0,0E0,0E0,0E0,0E0,0E0,0E0,0E0,0E0,0E0,0E0,0E0,0E0,0E0,0E0,0E0,0E0,0E0],"parents":[2147483647,0,0,1,1,2,2,3,3,4,4,5,5,6,6,7,7,8,8,9,9,10,10,12,12,13,13,14,14,15,15,16,16,17,17,18,18,19,19,20,20,22,22,23,23,24,24,25,25,26,26,27,27,28,28,29,29,30,30,31,31,32,32,34,34,35,35,36,36,37,37,38,38,39,39,40,40,41,41,42,42,44,44,45,45,46,46,48,48,49,49,50,50,51,51,52,52,53,53,54,54],"right_children":[2,4,6,8,10,12,14,16,18,20,22,-1,24,26,28,30,32,34,36,38,40,-1,42,44,46,48,50,52,54,56,58,60,62,-1,64,66,68,70,72,74,76,78,80,-1,82,84,86,-1,88,90,92,94,96,98,100,-1,-1,-1,-1,-1,-1,-1,-1,-1,-1,-1,-1,-1,-1,-1,-1,-1,-1,-1,-1,-1,-1,-1,-1,-1,-1,-1,-1,-1,-1,-1,-1,-1,-1,-1,-1,-1,-1,-1,-1,-1,-1,-1,-1,-1,-1],"split_conditions":[1.478244E0,1.0494776E0,2E0,5.624334E-1,1.6102245E0,-1.183885E0,5.624334E-1,2.1316977E-1,9.1169715E-1,5.624334E-1,2E0,-4.4414487E-2,5.624334E-1,1E0,1E0,-1.3609391E-1,5E0,2E0,2E0,7E0,8E0,3.1213226E-2,6E0,1E0,1E0,3E0,6E0,1.6102245E0,7E0,1.1E1,8E0,1E0,1.9194463E-1,-7.411314E-2,8E0,1.2609608E0,7E0,1E0,-1.183885E0,4E0,1E1,1E0,1E0,5.3393323E-2,1E0,1.2609608E0,1.2609608E0,-7.69676E-2,7E0,2.1316977E-1,7E0,4E0,1E1,1.2609608E0,9E0,3.221169E-3,-1.1092815E-2,5.8562816E-3,-3.6065057E-2,3.6511082E-2,-1.628387E-2,6.552447E-3,5.42256E-2,6.0081948E-3,-2.5050366E-2,2.5667122E-2,2.498439E-3,-8.564091E-3,3.4617845E-3,-3.526627E-2,5.1203105E-3,-5.7868678E-2,-1.8337648E-2,8.688119E-3,-1.3249171E-2,9.883851E-3,3.1287476E-2,-1.3974072E-2,-7.167706E-2,-2.9124245E-2,1.5216201E-2,2.9816724E-2,-8.4883915E-3,-5.363006E-2,4.3593112E-2,2.9356446E-2,-4.4068876E-3,1.0088094E-2,-5.1794935E-2,3.9320502E-2,-6.419241E-2,-8.284314E-2,2.3238486E-2,-2.5741601E-2,3.0350385E-2,6.670284E-2,1.8318586E-2,-1.8938486E-2,-4.3758936E-2,3.2658063E-2,-2.0801884E-3],"split_indices":[1,1,3,0,0,0,0,0,0,0,3,0,0,2,2,0,3,3,3,3,3,0,3,2,3,3,3,0,3,3,3,3,1,0,3,0,3,3,0,3,3,2,2,0,3,0,0,0,3,0,3,3,3,0,3,0,0,0,0,0,0,0,0,0,0,0,0,0,0,0,0,0,0,0,0,0,0,0,0,0,0,0,0,0,0,0,0,0,0,0,0,0,0,0,0,0,0,0,0,0,0],"split_type":[0,0,0,0,0,0,0,0,0,0,0,0,0,0,0,0,0,0,0,0,0,0,0,0,0,0,0,0,0,0,0,0,0,0,0,0,0,0,0,0,0,0,0,0,0,0,0,0,0,0,0,0,0,0,0,0,0,0,0,0,0,0,0,0,0,0,0,0,0,0,0,0,0,0,0,0,0,0,0,0,0,0,0,0,0,0,0,0,0,0,0,0,0,0,0,0,0,0,0,0,0],"sum_hessian":[7.93E2,6.79E2,1.14E2,5.81E2,9.8E1,2.2E1,9.2E1,3.59E2,2.22E2,8.6E1,1.2E1,1E0,2.1E1,5.7E1,3.5E1,3.04E2,5.5E1,5.3E1,1.69E2,6.2E1,2.4E1,1E0,1.1E1,1.3E1,8E0,2.7E1,3E1,1.7E1,1.8E1,2.41E2,6.3E1,1.7E1,3.8E1,6E0,4.7E1,2.8E1,1.41E2,4.2E1,2E1,1.4E1,1E1,4E0,7E0,7E0,6E0,3E0,5E0,3E0,2.4E1,1.4E1,1.6E1,1.2E1,5E0,7E0,1.1E1,2.19E2,2.2E1,4.1E1,2.2E1,4E0,1.3E1,2.6E1,1.2E1,3.1E1,1.6E1,1.2E1,1.6E1,7.5E1,6.6E1,6E0,3.6E1,3E0,1.7E1,4E0,1E1,3E0,7E0,1E0,3E0,3E0,4E0,3E0,3E0,2E0,1E0,4E0,1E0,1.5E1,9E0,1.3E1,1E0,3E0,1.3E1,2E0,1E1,4E0,1E0,3E0,4E0,3E0,8E0],"tree_param":{"num_deleted":"0","num_feature":"4","num_nodes":"101","size_leaf_vector":"1"}},{"base_weights":[-7.140771E-4,1.3303318E-2,-3.6058095E-3,7.195769E-3,7.5815015E-2,7.3762215E-3,-8.338604E-3,-6.587168E-2,1.3432655E-2,4.7777828E-2,-7.285905E-2,-1.0583652E-2,1.53917E-2,1.4795854E-2,-1.1970514E-2,-5.0651204E-2,3.0911654E-2,3.9845235E-3,5.1462725E-2,-4.0587764E-2,2.6531242E-2,-6.041591E-2,4.8205324E-2,7.4883796E-2,4.073599E-3,-6.067598E-4,6.874834E-2,-2.3771813E-2,-3.8035011E-3,1.1988531E-1,-6.20935E-2,6.306787E-2,-1.1824163E-2,-3.775231E-2,6.524204E-2,2.9205194E-2,-1.1062765E-1,1.174701E-1,2.5028855E-2,2.4906317E-2,1.592311E-1,1.9104421E-2,-4.4385243E-2,6.7444645E-2,-3.770732E-2,-7.758796E-3,1.121144E-1,-6.0776122E-2,-1.2803852E-2,2.6079725E-2,-1.2764014E-2,4.5053497E-2,1.4889163E-2,4.8007727E-2,3.025226E-3,-1.1109131E-3,-2.7055807E-2,3.1018514E-2,9.2624845E-3,-8.033483E-3,1.711863E-2,-1.7215066E-2,-4.759652E-2,4.2419E-2,1.1530733E-2,-1.9809E-2,2.0698193E-2,-5.3854887E-3,2.2935405E-2,6.3145004E-2,1.6607406E-2,-6.5133246E-3,1.1366222E-2,-2.7683964E-2,-8.0903334E-4,3.2624714E-2,-9.986704E-3,1.9358033E-2,-1.748038E-2,-5.969211E-2,2.1083679E-2,4.392238E-2,1.6619394E-2,-4.0113997E-2,-4.709126E-3,3.2272466E-2,-9.337465E-3,-3.356026E-2,1.3576272E-2,-1.1238187E-2,3.3052377E-3],"categories":[],"categories_nodes":[],"categories_segments":[],"categories_sizes":[],"default_left":[0,0,0,0,0,0,0,0,0,0,0,0,0,0,0,0,0,0,0,0,0,0,0,0,0,0,0,0,0,0,0,0,0,0,0,0,0,0,0,0,0,0,0,0,0,0,0,0,0,0,0,0,0,0,0,0,0,0,0,0,0,0,0,0,0,0,0,0,0,0,0,0,0,0,0,0,0,0,0,0,0,0,0,0,0,0,0,0,0,0,0],"id":4,"left_children":[1,3,5,7,9,11,13,15,17,-1,19,21,23,25,27,-1,29,31,33,-1,-1,35,37,39,41,43,45,47,49,51,-1,53,55,-1,57,59,61,63,65,67,69,71,73,75,77,79,81,83,85,87,89,-1,-1,-1,-1,-1,-1,-1,-1,-1,-1,-1,-1,-1,-1,-1,-1,-1,-1,-1,-1,-1,-1,-1,-1,-1,-1,-1,-1,-1,-1,-1,-1,-1,-1,-1,-1,-1,-1,-1,-1],"loss_changes":[3.2232407E-2,5.1378336E-2,3.4313492E-2,5.7848997E-2,1.6047573E-1,2.8810339E-2,3.891138E-2,1.04872644E-1,4.1475266E-2,0E0,6.231646E-2,1.8454675E-1,9.2615545E-2,5.2395303E-2,3.8365748E-2,0E0,1.5180932E-1,8.8544555E-2,6.440195E-2,0E0,0E0,1.56232E-1,4.3613933E-2,8.8774376E-2,8.6067975E-2,1.2878042E-1,4.7319256E-2,6.5377295E-2,6.379415E-2,3.1877086E-3,0E0,1.0113018E-1,4.7394983E-2,0E0,2.5654264E-2,2.1801867E-2,4.715365E-2,7.8024566E-3,9.663419E-2,3.450913E-2,3.093788E-2,6.981991E-2,5.565745E-2,7.851353E-2,7.3125705E-2,1.03515506E-1,9.394363E-3,1.195548E-1,2.8344202E-1,1.5054141E-1,1.0789259E-1,0E0,0E0,0E0,0E0,0E0,0E0,0E0,0E0,0E0,0E0,0E0,0E0,0E0,0E0,0E0,0E0,0E0,0E0,0E0,0E0,0E0,0E0,0E0,0E0,0E0,0E0,0E0,0E0,0E0,0E0,0E0,0E0,0E0,0E0,0E0,0E0,0E0,0E0,0E0,0E0],"parents":[2147483647,0,0,1,1,2,2,3,3,4,4,5,5,6,6,7,7,8,8,10,10,11,11,12,12,13,13,14,14,16,16,17,17,18,18,21,21,22,22,23,23,24,24,25,25,26,26,27,27,28,28,29,29,31,31,32,32,34,34,35,35,36,36,37,37,38,38,39,39,40,40,41,41,42,42,43,43,44,44,45,45,46,46,47,47,48,48,49,49,50,50],"right_children":[2,4,6,8,10,12,14,16,18,-1,20,22,24,26,28,-1,30,32,34,-1,-1,36,38,40,42,44,46,48,50,52,-1,54,56,-1,58,60,62,64,66,68,70,72,74,76,78,80,82,84,86,88,90,-1,-1,-1,-1,-1,-1,-1,-1,-1,-1,-1,-1,-1,-1,-1,-1,-1,-1,-1,-1,-1,-1,-1,-1,-1,-1,-1,-1,-1,-1,-1,-1,-1,-1,-1,-1,-1,-1,-1,-1],"split_conditions":[2E0,1.6102245E0,-4.853576E-1,-1.0943547E0,1.9194463E-1,5E0,-1.0943547E0,1E0,1.478244E0,4.7777828E-2,1.0494776E0,1.9194463E-1,6E0,9E0,1.9194463E-1,-5.0651204E-2,5.624334E-1,-1.183885E0,-1.183885E0,-4.0587764E-2,2.6531242E-2,-6.6558826E-1,6.207111E-1,-8.346213E-1,1.0494776E0,5.624334E-1,5.624334E-1,4E0,6.207111E-1,1E0,-6.20935E-2,-2.3682183E-1,1.2609608E0,-3.775231E-2,2.1316977E-1,-1.0943547E0,4E0,1E0,1.0494776E0,1.0494776E0,1E0,-6.6558826E-1,1.478244E0,8E0,3E0,1E0,1E1,-6.6558826E-1,5E0,-1.3609391E-1,1E0,4.5053497E-2,1.4889163E-2,4.8007727E-2,3.025226E-3,-1.1109131E-3,-2.7055807E-2,3.1018514E-2,9.2624845E-3,-8.033483E-3,1.711863E-2,-1.7215066E-2,-4.759652E-2,4.2419E-2,1.1530733E-2,-1.9809E-2,2.0698193E-2,-5.3854887E-3,2.2935405E-2,6.3145004E-2,1.6607406E-2,-6.5133246E-3,1.1366222E-2,-2.7683964E-2,-8.0903334E-4,3.2624714E-2,-9.986704E-3,1.9358033E-2,-1.748038E-2,-5.969211E-2,2.1083679E-2,4.392238E-2,1.6619394E-2,-4.0113997E-2,-4.709126E-3,3.2272466E-2,-9.337465E-3,-3.356026E-2,1.3576272E-2,-1.1238187E-2,3.3052377E-3],"split_indices":[3,0,0,1,1,3,1,2,1,0,1,1,3,3,1,0,0,0,0,0,0,1,1,0,1,0,0,3,1,3,0,1,0,0,0,1,3,2,1,1,2,1,1,3,3,2,3,1,3,0,2,0,0,0,0,0,0,0,0,0,0,0,0,0,0,0,0,0,0,0,0,0,0,0,0,0,0,0,0,0,0,0,0,0,0,0,0,0,0,0,0],"split_type":[0,0,0,0,0,0,0,0,0,0,0,0,0,0,0,0,0,0,0,0,0,0,0,0,0,0,0,0,0,0,0,0,0,0,0,0,0,0,0,0,0,0,0,0,0,0,0,0,0,0,0,0,0,0,0,0,0,0,0,0,0,0,0,0,0,0,0,0,0,0,0,0,0,0,0,0,0,0,0,0,0,0,0,0,0,0,0,0,0,0,0],"sum_hessian":[7.93E2,1.35E2,6.58E2,1.24E2,1.1E1,1.98E2,4.6E2,9E0,1.15E2,7E0,4E0,6.1E1,1.37E2,6.2E1,3.98E2,4E0,5E0,9.3E1,2.2E1,3E0,1E0,3.3E1,2.8E1,2.1E1,1.16E2,4.9E1,1.3E1,1.62E2,2.36E2,4E0,1E0,1.9E1,7.4E1,1E0,2.1E1,1.2E1,2.1E1,6E0,2.2E1,1.4E1,7E0,8.9E1,2.7E1,1.7E1,3.2E1,5E0,8E0,3.6E1,1.26E2,5.4E1,1.82E2,2E0,2E0,6E0,1.3E1,6.8E1,6E0,9E0,1.2E1,4E0,8E0,1.1E1,1E1,4E0,2E0,7E0,1.5E1,8E0,6E0,4E0,3E0,2.8E1,6.1E1,1.2E1,1.5E1,1.2E1,5E0,5E0,2.7E1,1E0,4E0,4E0,4E0,1.3E1,2.3E1,1.6E1,1.1E2,6E0,4.8E1,8.9E1,9.3E1],"tree_param":{"num_deleted":"0","num_feature":"4","num_nodes":"91","size_leaf_vector":"1"}},{"base_weights":[-4.044781E-4,9.358747E-3,-2.4187332E-3,-2.036771E-4,3.6958992E-2,-2.0637346E-2,-4.2439962E-4,1.4020048E-2,-1.0804995E-1,6.357344E-2,1.8342571E-2,-6.651103E-2,2.058327E-2,6.8469024E-3,-5.713305E-3,-3.917151E-3,4.8863567E-2,-5.2156277E-2,-1.3269961E-2,7.5414113E-4,1.4720681E-1,5.9835665E-2,-1.4986162E-2,1.0093898E-1,-8.805706E-2,-5.218344E-2,7.157934E-2,1.1446655E-2,-2.3886211E-2,-3.4165606E-2,3.9653218E-4,3.0188756E-2,-3.3770308E-2,1.00493774E-1,-5.8206096E-3,-4.9634814E-2,3.963983E-2,4.182701E-2,-2.860018E-2,5.871864E-2,5.3031374E-2,1.0642082E-1,-2.5300993E-2,-5.6257427E-2,4.2539883E-2,1.1716274E-2,4.2988982E-2,-9.474846E-2,1.3891581E-2,3.345389E-2,-1.5483381E-1,1.057662E-1,-3.0046917E-2,1.1758504E-3,7.611353E-2,8.468284E-3,-5.4835636E-2,-1.8742259E-3,-7.475941E-2,1.3367743E-2,-1.1532679E-2,-1.8140342E-2,1.547851E-2,-4.0775757E-2,-1.8109537E-3,6.0802E-3,3.7664093E-2,-2.416028E-2,1.4118303E-2,1.2945348E-2,-4.9198914E-2,-4.4331044E-2,6.2168967E-2,-1.4691127E-2,3.6650307E-2,-1.06172655E-2,3.7040655E-2,1.7969443E-2,4.9197778E-2,-3.2679483E-2,2.0353025E-2,2.3318665E-2,-2.0010764E-2,-2.2058183E-2,-5.9516527E-2,-1.7889824E-2,3.5954922E-2,-5.881547E-2,-1.0357878E-2,6.347306E-2,1.8126586E-2,5.842814E-3,-4.2432826E-3,5.2553073E-2,1.3214594E-2,1.7685508E-2,-1.2886815E-2,-2.6521338E-2,1.3023127E-2,-1.482655E-2,1.7303227E-2,-3.2596856E-2,-1.8807811E-3,1.526931E-2,-1.8488272E-3,-2.125827E-2,5.2093514E-3],"categories":[],"categories_nodes":[],"categories_segments":[],"categories_sizes":[],"default_left":[0,0,0,0,0,0,0,0,0,0,0,0,0,0,0,0,0,0,0,0,0,0,0,0,0,0,0,0,0,0,0,0,0,0,0,0,0,0,0,0,0,0,0,0,0,0,0,0,0,0,0,0,0,0,0,0,0,0,0,0,0,0,0,0,0,0,0,0,0,0,0,0,0,0,0,0,0,0,0,0,0,0,0,0,0,0,0,0,0,0,0,0,0,0,0,0,0,0,0,0,0,0,0,0,0,0,0],"id":5,"left_children":[1,3,5,7,9,11,13,15,17,19,21,23,25,27,29,31,33,-1,35,37,39,41,43,45,47,49,51,53,55,57,59,61,63,65,67,69,71,73,-1,75,-1,77,-1,79,81,-1,-1,83,-1,85,87,89,-1,91,93,95,97,99,101,103,105,-1,-1,-1,-1,-1,-1,-1,-1,-1,-1,-1,-1,-1,-1,-1,-1,-1,-1,-1,-1,-1,-1,-1,-1,-1,-1,-1,-1,-1,-1,-1,-1,-1,-1,-1,-1,-1,-1,-1,-1,-1,-1,-1,-1,-1,-1],"loss_changes":[1.5637144E-2,3.5901364E-2,2.3935342E-2,1.579804E-1,1.6175196E-2,1.2428021E-1,2.2921171E-2,5.706596E-2,7.253611E-2,7.344206E-2,3.132078E-2,1.207328E-1,1.3361382E-1,3.5755962E-2,5.9987985E-2,6.312779E-2,8.810896E-2,0E0,1.3511856E-2,3.950705E-2,5.3168386E-3,7.6138064E-2,3.325743E-2,4.8888214E-3,2.956137E-2,1.3704036E-1,1.3388638E-1,1.453661E-1,3.3509016E-2,7.9820506E-2,4.425402E-2,5.9397794E-2,9.266773E-2,2.961436E-2,6.700568E-2,4.952123E-2,1.24846525E-1,5.70457E-2,0E0,2.2650503E-2,0E0,1.1604302E-2,0E0,5.9685584E-2,2.8249502E-2,0E0,0E0,4.479581E-2,0E0,7.9527654E-2,2.7942717E-2,7.357843E-2,0E0,5.354412E-2,8.757737E-2,4.6665616E-2,5.990375E-2,1.0195436E-1,6.200187E-2,1.0073176E-1,2.5667882E-1,0E0,0E0,0E0,0E0,0E0,0E0,0E0,0E0,0E0,0E0,0E0,0E0,0E0,0E0,0E0,0E0,0E0,0E0,0E0,0E0,0E0,0E0,0E0,0E0,0E0,0E0,0E0,0E0,0E0,0E0,0E0,0E0,0E0,0E0,0E0,0E0,0E0,0E0,0E0,0E0,0E0,0E0,0E0,0E0,0E0,0E0],"parents":[2147483647,0,0,1,1,2,2,3,3,4,4,5,5,6,6,7,7,8,8,9,9,10,10,11,11,12,12,13,13,14,14,15,15,16,16,18,18,19,19,20,20,21,21,22,22,23,23,24,24,25,25,26,26,27,27,28,28,29,29,30,30,31,31,32,32,33,33,34,34,35,35,36,36,37,37,39,39,41,41,43,43,44,44,47,47,49,49,50,50,51,51,53,53,54,54,55,55,56,56,57,57,58,58,59,59,60,60],"right_children":[2,4,6,8,10,12,14,16,18,20,22,24,26,28,30,32,34,-1,36,38,40,42,44,46,48,50,52,54,56,58,60,62,64,66,68,70,72,74,-1,76,-1,78,-1,80,82,-1,-1,84,-1,86,88,90,-1,92,94,96,98,100,102,104,106,-1,-1,-1,-1,-1,-1,-1,-1,-1,-1,-1,-1,-1,-1,-1,-1,-1,-1,-1,-1,-1,-1,-1,-1,-1,-1,-1,-1,-1,-1,-1,-1,-1,-1,-1,-1,-1,-1,-1,-1,-1,-1,-1,-1,-1,-1],"split_conditions":[2E0,9.1169715E-1,3E0,5.624334E-1,1E0,1E0,-1.3609391E-1,-1.3609391E-1,1.0494776E0,1E0,1.2609608E0,-1.0943547E0,1.9194463E-1,1.1E1,2.1316977E-1,1.9194463E-1,1E0,-5.2156277E-2,1E0,6.207111E-1,1.9194463E-1,1.0494776E0,1.6102245E0,9.1169715E-1,1.6102245E0,-2.3682183E-1,1.6102245E0,1E1,-8.346213E-1,8E0,1E0,-1.0943547E0,6.207111E-1,-6.6558826E-1,-2.3682183E-1,1E0,1E0,1.2609608E0,-2.860018E-2,1.2609608E0,5.3031374E-2,6.207111E-1,-2.5300993E-2,1.0494776E0,1.9194463E-1,1.1716274E-2,4.2988982E-2,1.478244E0,1.3891581E-2,-1.0943547E0,1.2609608E0,6.207111E-1,-3.0046917E-2,6E0,-6.6558826E-1,-2.3682183E-1,1.478244E0,1E0,1.1E1,6E0,6E0,-1.8140342E-2,1.547851E-2,-4.0775757E-2,-1.8109537E-3,6.0802E-3,3.7664093E-2,-2.416028E-2,1.4118303E-2,1.2945348E-2,-4.9198914E-2,-4.4331044E-2,6.2168967E-2,-1.4691127E-2,3.6650307E-2,-1.06172655E-2,3.7040655E-2,1.7969443E-2,4.9197778E-2,-3.2679483E-2,2.0353025E-2,2.3318665E-2,-2.0010764E-2,-2.2058183E-2,-5.9516527E-2,-1.7889824E-2,3.5954922E-2,-5.881547E-2,-1.0357878E-2,6.347306E-2,1.8126586E-2,5.842814E-3,-4.2432826E-3,5.2553073E-2,1.3214594E-2,1.7685508E-2,-1.2886815E-2,-2.6521338E-2,1.3023127E-2,-1.482655E-2,1.7303227E-2,-3.2596856E-2,-1.8807811E-3,1.526931E-2,-1.8488272E-3,-2.125827E-2,5.2093514E-3],"split_indices":[3,0,3,0,2,2,0,0,1,3,0,1,1,3,0,1,3,0,3,1,1,1,0,0,0,1,0,3,0,3,2,1,1,1,1,2,2,0,0,0,0,1,0,1,1,0,0,1,0,1,0,1,0,3,1,1,1,2,3,3,3,0,0,0,0,0,0,0,0,0,0,0,0,0,0,0,0,0,0,0,0,0,0,0,0,0,0,0,0,0,0,0,0,0,0,0,0,0,0,0,0,0,0,0,0,0,0],"split_type":[0,0,0,0,0,0,0,0,0,0,0,0,0,0,0,0,0,0,0,0,0,0,0,0,0,0,0,0,0,0,0,0,0,0,0,0,0,0,0,0,0,0,0,0,0,0,0,0,0,0,0,0,0,0,0,0,0,0,0,0,0,0,0,0,0,0,0,0,0,0,0,0,0,0,0,0,0,0,0,0,0,0,0,0,0,0,0,0,0,0,0,0,0,0,0,0,0,0,0,0,0,0,0,0,0,0,0],"sum_hessian":[7.93E2,1.35E2,6.58E2,1.01E2,3.4E1,6.4E1,5.94E2,9E1,1.1E1,1.3E1,2.1E1,3E1,3.4E1,2.5E2,3.44E2,6E1,3E1,6E0,5E0,8E0,5E0,9E0,1.2E1,3E0,2.7E1,1.4E1,2E1,2.18E2,3.2E1,6E1,2.84E2,2.8E1,3.2E1,1.5E1,1.5E1,3E0,2E0,6E0,2E0,2E0,3E0,7E0,2E0,7E0,5E0,2E0,1E0,2.6E1,1E0,8E0,6E0,1.7E1,3E0,1.89E2,2.9E1,1.6E1,1.6E1,3.4E1,2.6E1,1.36E2,1.48E2,5E0,2.3E1,6E0,2.6E1,4E0,1.1E1,6E0,9E0,2E0,1E0,1E0,1E0,3E0,3E0,1E0,1E0,5E0,2E0,5E0,2E0,4E0,1E0,2.3E1,3E0,4E0,4E0,4E0,2E0,4E0,1.3E1,8.6E1,1.03E2,6E0,2.3E1,8E0,8E0,1.2E1,4E0,1.9E1,1.5E1,1.7E1,9E0,4.6E1,9E1,4.8E1,1E2],"tree_param":{"num_deleted":"0","num_feature":"4","num_nodes":"107","size_leaf_vector":"1"}},{"base_weights":[-2.3899475E-4,-2.50974E-3,6.8938094E-3,1.5425883E-3,-3.920902E-2,1.7462742E-2,-4.2734254E-2,-2.3922877E-2,4.6897745E-3,-7.34602E-2,3.8567737E-2,6.9533573E-3,9.4534345E-2,2.7411351E-2,-8.746302E-2,-4.9337342E-2,-1.0947922E-2,4.3099257E-4,3.3738706E-2,9.271842E-3,-1.4909258E-1,-3.1993296E-2,1.2052369E-1,-1.2722089E-2,2.2114912E-2,5.3268805E-2,1.1970303E-1,9.231068E-2,-5.067522E-2,-1.1198949E-1,-4.2317785E-2,9.182586E-2,-2.9989924E-2,1.5207145E-2,-4.176484E-3,-2.0634042E-2,7.103473E-2,9.537915E-2,-7.767836E-2,-1.1802288E-1,-7.782017E-2,7.801445E-2,-1.7960547E-1,4.0902834E-2,1.3031382E-2,8.736946E-3,-7.0039354E-2,3.9477352E-2,2.7550561E-3,6.817384E-2,-9.895716E-3,6.0340367E-2,7.925885E-2,-1.1521816E-3,5.581848E-2,-8.401749E-2,2.1786967E-2,-6.357766E-2,-6.1506514E-2,1.878663E-2,-5.1236648E-2,3.0040117E-3,5.747644E-2,1.2486964E-2,-1.4274988E-2,-1.5630195E-3,1.9110465E-2,-3.115542E-3,4.020892E-3,1.1745358E-3,-4.6989966E-2,3.5534207E-2,-1.1283659E-2,1.6322816E-2,4.0098302E-2,6.757483E-3,-6.0728196E-2,-4.3953016E-2,-1.8161777E-2,-4.002563E-2,5.6781445E-2,-1.4030649E-2,-6.033673E-2,-2.701565E-2,6.894238E-3,-5.7572033E-2,-9.065186E-3,-3.6612833E-3,1.871868E-2,2.5968527E-2,8.443643E-3,-5.097273E-3,3.275582E-2,5.1241808E-2,-2.6052972E-2,5.6263045E-3,-7.426573E-2,-3.614797E-2,4.5952108E-2,-3.884253E-3,-2.238503E-2,2.573493E-2,-2.002989E-3],"categories":[],"categories_nodes":[],"categories_segments":[],"categories_sizes":[],"default_left":[0,0,0,0,0,0,0,0,0,0,0,0,0,0,0,0,0,0,0,0,0,0,0,0,0,0,0,0,0,0,0,0,0,0,0,0,0,0,0,0,0,0,0,0,0,0,0,0,0,0,0,0,0,0,0,0,0,0,0,0,0,0,0,0,0,0,0,0,0,0,0,0,0,0,0,0,0,0,0,0,0,0,0,0,0,0,0,0,0,0,0,0,0,0,0,0,0,0,0,0,0,0,0],"id":6,"left_children":[1,3,5,7,9,11,13,15,17,19,21,23,25,27,29,-1,31,33,35,37,39,41,43,45,47,49,51,53,55,57,59,61,63,65,67,69,71,73,75,77,-1,79,81,-1,-1,83,85,-1,87,89,-1,-1,91,93,-1,95,97,99,-1,101,-1,-1,-1,-1,-1,-1,-1,-1,-1,-1,-1,-1,-1,-1,-1,-1,-1,-1,-1,-1,-1,-1,-1,-1,-1,-1,-1,-1,-1,-1,-1,-1,-1,-1,-1,-1,-1,-1,-1,-1,-1,-1,-1],"loss_changes":[1.2877546E-2,8.973716E-2,1.0145326E-1,4.3710835E-2,1.626699E-1,1.281287E-1,1.0907339E-1,1.07605584E-1,5.9986297E-2,2.641857E-1,1.13730974E-1,4.2343106E-2,1.3356954E-2,7.562659E-2,1.8513173E-2,0E0,1.1234689E-1,2.892976E-2,1.2719473E-1,1.6463691E-1,4.478398E-2,1.9263513E-1,5.0523877E-3,7.687027E-2,1.6919301E-1,1.3819398E-2,2.0286053E-2,7.0312195E-2,1.874286E-2,4.5515373E-2,7.385988E-2,7.153775E-2,6.2456567E-2,1.0033405E-1,3.5502106E-2,8.741854E-2,1.950508E-1,9.979963E-3,1.4206252E-1,2.2243738E-2,0E0,1.8991639E-1,4.8849434E-3,0E0,0E0,6.679777E-2,7.670231E-2,0E0,6.23221E-2,3.4519844E-3,0E0,0E0,2.7779542E-2,8.8509746E-2,0E0,8.867662E-2,7.453758E-2,4.6230108E-3,0E0,1.2514381E-2,0E0,0E0,0E0,0E0,0E0,0E0,0E0,0E0,0E0,0E0,0E0,0E0,0E0,0E0,0E0,0E0,0E0,0E0,0E0,0E0,0E0,0E0,0E0,0E0,0E0,0E0,0E0,0E0,0E0,0E0,0E0,0E0,0E0,0E0,0E0,0E0,0E0,0E0,0E0,0E0,0E0,0E0,0E0],"parents":[2147483647,0,0,1,1,2,2,3,3,4,4,5,5,6,6,7,7,8,8,9,9,10,10,11,11,12,12,13,13,14,14,16,16,17,17,18,18,19,19,20,20,21,21,22,22,23,23,24,24,25,25,26,26,27,27,28,28,29,29,30,30,31,31,32,32,33,33,34,34,35,35,36,36,37,37,38,38,39,39,41,41,42,42,45,45,46,46,48,48,49,49,52,52,53,53,55,55,56,56,57,57,59,59],"right_children":[2,4,6,8,10,12,14,16,18,20,22,24,26,28,30,-1,32,34,36,38,40,42,44,46,48,50,52,54,56,58,60,62,64,66,68,70,72,74,76,78,-1,80,82,-1,-1,84,86,-1,88,90,-1,-1,92,94,-1,96,98,100,-1,102,-1,-1,-1,-1,-1,-1,-1,-1,-1,-1,-1,-1,-1,-1,-1,-1,-1,-1,-1,-1,-1,-1,-1,-1,-1,-1,-1,-1,-1,-1,-1,-1,-1,-1,-1,-1,-1,-1,-1,-1,-1,-1,-1],"split_conditions":[9E0,8E0,1.2609608E0,-1.183885E0,1.2609608E0,9.1169715E-1,1E1,-1.0943547E0,7E0,-1.3609391E-1,6.207111E-1,1E0,1E1,1E0,1.0494776E0,-4.9337342E-2,1E0,-4.853576E-1,-2.3682183E-1,-2.3682183E-1,6.207111E-1,-6.6558826E-1,1.478244E0,1.0494776E0,-1.183885E0,1.478244E0,-2.3682183E-1,1.0494776E0,1.6102245E0,-2.3682183E-1,1E0,6.207111E-1,-6.6558826E-1,5E0,1.2609608E0,1.6102245E0,1.0494776E0,-6.6558826E-1,1E0,-2.3682183E-1,-7.782017E-2,1E0,1.6102245E0,4.0902834E-2,1.3031382E-2,-1.0943547E0,-1.183885E0,3.9477352E-2,1.478244E0,1E0,-9.895716E-3,6.0340367E-2,1.9194463E-1,-1.0943547E0,5.581848E-2,1.0494776E0,6.207111E-1,-1.0943547E0,-6.1506514E-2,1.1E1,-5.1236648E-2,3.0040117E-3,5.747644E-2,1.2486964E-2,-1.4274988E-2,-1.5630195E-3,1.9110465E-2,-3.115542E-3,4.020892E-3,1.1745358E-3,-4.6989966E-2,3.5534207E-2,-1.1283659E-2,1.6322816E-2,4.0098302E-2,6.757483E-3,-6.0728196E-2,-4.3953016E-2,-1.8161777E-2,-4.002563E-2,5.6781445E-2,-1.4030649E-2,-6.033673E-2,-2.701565E-2,6.894238E-3,-5.7572033E-2,-9.065186E-3,-3.6612833E-3,1.871868E-2,2.5968527E-2,8.443643E-3,-5.097273E-3,3.275582E-2,5.1241808E-2,-2.6052972E-2,5.6263045E-3,-7.426573E-2,-3.614797E-2,4.5952108E-2,-3.884253E-3,-2.238503E-2,2.573493E-2,-2.002989E-3],"split_indices":[3,3,0,0,0,0,3,1,3,0,1,2,3,2,1,0,3,0,1,1,1,1,1,1,0,1,1,1,0,1,2,1,1,3,0,0,1,1,2,1,0,2,0,0,0,1,0,0,1,2,0,0,1,1,0,1,1,1,0,3,0,0,0,0,0,0,0,0,0,0,0,0,0,0,0,0,0,0,0,0,0,0,0,0,0,0,0,0,0,0,0,0,0,0,0,0,0,0,0,0,0,0,0],"split_type":[0,0,0,0,0,0,0,0,0,0,0,0,0,0,0,0,0,0,0,0,0,0,0,0,0,0,0,0,0,0,0,0,0,0,0,0,0,0,0,0,0,0,0,0,0,0,0,0,0,0,0,0,0,0,0,0,0,0,0,0,0,0,0,0,0,0,0,0,0,0,0,0,0,0,0,0,0,0,0,0,0,0,0,0,0,0,0,0,0,0,0,0,0,0,0,0,0,0,0,0,0,0,0],"sum_hessian":[7.93E2,6.02E2,1.91E2,5.43E2,5.9E1,1.58E2,3.3E1,5.9E1,4.84E2,4.1E1,1.8E1,1.4E2,1.8E1,1.3E1,2E1,4E0,5.5E1,4.23E2,6.1E1,2E1,2.1E1,1E1,8E0,6.1E1,7.9E1,8E0,1E1,7E0,6E0,1.2E1,8E0,8E0,4.7E1,1E2,3.23E2,2.5E1,3.6E1,1E1,1E1,1.8E1,3E0,6E0,4E0,6E0,2E0,4.5E1,1.6E1,1.1E1,6.8E1,7E0,1E0,2E0,8E0,4E0,3E0,4E0,2E0,9E0,3E0,6E0,2E0,5E0,3E0,9E0,3.8E1,7.1E1,2.9E1,2.39E2,8.4E1,2.2E1,3E0,2.5E1,1.1E1,6E0,4E0,6E0,4E0,1.1E1,7E0,2E0,4E0,1E0,3E0,5E0,4E1,3E0,1.3E1,5.5E1,1.3E1,4E0,3E0,2E0,6E0,1E0,3E0,3E0,1E0,1E0,1E0,2E0,7E0,1E0,5E0],"tree_param":{"num_deleted":"0","num_feature":"4","num_nodes":"103","size_leaf_vector":"1"}},{"base_weights":[-3.5336192E-4,-1.9087121E-3,8.846564E-3,-5.0851363E-6,-1.3080452E-2,-3.345872E-2,1.4100177E-2,5.984207E-3,-3.1326397E-3,1.0085201E-2,-3.0326813E-2,1.1123704E-2,-8.73255E-2,2.9029602E-2,5.430506E-4,-9.045104E-3,1.7171482E-2,-2.4722708E-2,4.097735E-4,-5.634793E-2,3.519989E-2,9.05215E-2,-4.6319194E-2,-2.9676573E-2,4.0976208E-2,-3.9595507E-2,1.3290247E-3,1.2700953E-2,1.4393476E-1,-1.2646816E-2,4.886064E-2,-1.9499838E-2,5.116224E-2,-5.1823985E-3,6.636979E-2,-4.9752425E-2,1.0595392E-1,4.8793554E-3,-5.2037623E-2,1.0153119E-1,1.958899E-3,1.7182297E-1,2.3636317E-2,-1.478505E-1,-2.3991263E-2,-3.63202E-2,1.0802856E-1,-1.7051438E-2,1.76495E-2,3.1779684E-2,-3.0452017E-2,1.1204714E-2,4.733463E-2,3.5075594E-2,-2.7714454E-2,-2.4360618E-2,1.04641624E-1,-6.395243E-4,-1.5444605E-2,-1.7223865E-2,3.173912E-2,5.20596E-3,-2.0796914E-2,8.687972E-3,3.0651236E-2,-4.0313955E-3,-3.3273038E-2,-7.014406E-3,4.3874115E-2,-3.2555618E-4,3.7803177E-3,1.1326162E-2,-2.102383E-2,1.1576859E-2,5.055947E-2,-1.2061809E-2,2.008344E-2,6.332662E-2,1.399372E-2,2.953949E-2,-4.1351743E-2,-5.7171818E-2,-1.40413605E-2,-2.1140339E-2,7.072734E-3,-2.9080257E-2,2.1828264E-2,3.6804512E-2,9.6103735E-3,3.5730929E-3,3.9815508E-2,-2.422519E-2,9.41472E-3,-8.206648E-3,2.7498225E-2,6.439969E-3,-2.1787051E-2,-2.280921E-3,-9.251587E-3,5.6782495E-2,9.879986E-3],"categories":[],"categories_nodes":[],"categories_segments":[],"categories_sizes":[],"default_left":[0,0,0,0,0,0,0,0,0,0,0,0,0,0,0,0,0,0,0,0,0,0,0,0,0,0,0,0,0,0,0,0,0,0,0,0,0,0,0,0,0,0,0,0,0,0,0,0,0,0,0,0,0,0,0,0,0,0,0,0,0,0,0,0,0,0,0,0,0,0,0,0,0,0,0,0,0,0,0,0,0,0,0,0,0,0,0,0,0,0,0,0,0,0,0,0,0,0,0,0,0],"id":7,"left_children":[1,3,5,7,9,11,13,15,17,19,21,23,25,27,29,31,33,35,37,-1,39,41,43,-1,45,-1,47,49,51,53,55,57,59,61,63,65,67,69,71,73,75,77,79,81,83,85,87,-1,-1,89,91,-1,-1,93,95,97,99,-1,-1,-1,-1,-1,-1,-1,-1,-1,-1,-1,-1,-1,-1,-1,-1,-1,-1,-1,-1,-1,-1,-1,-1,-1,-1,-1,-1,-1,-1,-1,-1,-1,-1,-1,-1,-1,-1,-1,-1,-1,-1,-1,-1],"loss_changes":[1.1378317E-2,1.4461373E-2,2.6031166E-2,1.0920676E-2,3.9858647E-2,3.2191034E-2,2.0831445E-2,3.378272E-2,2.930233E-2,2.2034252E-1,1.14354044E-1,3.0334542E-2,2.3931023E-2,9.010793E-2,3.5669573E-2,5.513051E-2,1.2681785E-1,1.8189462E-1,7.761183E-2,0E0,8.579293E-2,3.4003787E-2,1.1206906E-1,0E0,4.0203962E-2,0E0,1.3378175E-2,3.7193123E-2,2.9625595E-3,3.2610916E-2,5.1561378E-2,4.0994987E-2,8.318989E-2,1.16838805E-1,4.525633E-2,1.0067132E-1,5.032134E-2,1.4060885E-2,4.47658E-2,4.8318923E-2,7.667498E-2,4.899144E-3,7.3987275E-2,2.9932499E-2,9.672362E-2,3.350037E-2,5.241409E-4,0E0,0E0,6.059252E-2,4.607674E-2,0E0,0E0,4.1366823E-2,7.665384E-2,4.1686464E-4,3.6248982E-2,0E0,0E0,0E0,0E0,0E0,0E0,0E0,0E0,0E0,0E0,0E0,0E0,0E0,0E0,0E0,0E0,0E0,0E0,0E0,0E0,0E0,0E0,0E0,0E0,0E0,0E0,0E0,0E0,0E0,0E0,0E0,0E0,0E0,0E0,0E0,0E0,0E0,0E0,0E0,0E0,0E0,0E0,0E0,0E0],"parents":[2147483647,0,0,1,1,2,2,3,3,4,4,5,5,6,6,7,7,8,8,9,9,10,10,11,11,12,12,13,13,14,14,15,15,16,16,17,17,18,18,20,20,21,21,22,22,24,24,26,26,27,27,28,28,29,29,30,30,31,31,32,32,33,33,34,34,35,35,36,36,37,37,38,38,39,39,40,40,41,41,42,42,43,43,44,44,45,45,46,46,49,49,50,50,53,53,54,54,55,55,56,56],"right_children":[2,4,6,8,10,12,14,16,18,20,22,24,26,28,30,32,34,36,38,-1,40,42,44,-1,46,-1,48,50,52,54,56,58,60,62,64,66,68,70,72,74,76,78,80,82,84,86,88,-1,-1,90,92,-1,-1,94,96,98,100,-1,-1,-1,-1,-1,-1,-1,-1,-1,-1,-1,-1,-1,-1,-1,-1,-1,-1,-1,-1,-1,-1,-1,-1,-1,-1,-1,-1,-1,-1,-1,-1,-1,-1,-1,-1,-1,-1,-1,-1,-1,-1,-1,-1],"split_conditions":[1.478244E0,1.0494776E0,-1.183885E0,4E0,-1.3609391E-1,6E0,1E0,1E0,5E0,1E0,2E0,2E0,9E0,1.6102245E0,1.1E1,1.2609608E0,1.9194463E-1,1.2609608E0,1.6102245E0,-5.634793E-2,5E0,1E0,4E0,-2.9676573E-2,1E0,-3.9595507E-2,1E0,7E0,3E0,-4.853576E-1,-4.853576E-1,1.9194463E-1,-6.6558826E-1,-2.3682183E-1,2E0,1E0,-1.0943547E0,2.1316977E-1,-1.0943547E0,3E0,1E0,9.1169715E-1,2.1316977E-1,5.624334E-1,1E0,5E0,3E0,-1.7051438E-2,1.76495E-2,5E0,5.624334E-1,1.1204714E-2,4.733463E-2,3E0,4E0,-8.346213E-1,5.624334E-1,-6.395243E-4,-1.5444605E-2,-1.7223865E-2,3.173912E-2,5.20596E-3,-2.0796914E-2,8.687972E-3,3.0651236E-2,-4.0313955E-3,-3.3273038E-2,-7.014406E-3,4.3874115E-2,-3.2555618E-4,3.7803177E-3,1.1326162E-2,-2.102383E-2,1.1576859E-2,5.055947E-2,-1.2061809E-2,2.008344E-2,6.332662E-2,1.399372E-2,2.953949E-2,-4.1351743E-2,-5.7171818E-2,-1.40413605E-2,-2.1140339E-2,7.072734E-3,-2.9080257E-2,2.1828264E-2,3.6804512E-2,9.6103735E-3,3.5730929E-3,3.9815508E-2,-2.422519E-2,9.41472E-3,-8.206648E-3,2.7498225E-2,6.439969E-3,-2.1787051E-2,-2.280921E-3,-9.251587E-3,5.6782495E-2,9.879986E-3],"split_indices":[1,1,0,3,0,3,2,2,3,3,3,3,3,0,3,0,1,0,0,0,3,2,3,0,2,0,2,3,3,0,0,1,1,1,3,2,1,0,1,3,2,0,0,0,2,3,3,0,0,3,0,0,0,3,3,0,0,0,0,0,0,0,0,0,0,0,0,0,0,0,0,0,0,0,0,0,0,0,0,0,0,0,0,0,0,0,0,0,0,0,0,0,0,0,0,0,0,0,0,0,0],"split_type":[0,0,0,0,0,0,0,0,0,0,0,0,0,0,0,0,0,0,0,0,0,0,0,0,0,0,0,0,0,0,0,0,0,0,0,0,0,0,0,0,0,0,0,0,0,0,0,0,0,0,0,0,0,0,0,0,0,0,0,0,0,0,0,0,0,0,0,0,0,0,0,0,0,0,0,0,0,0,0,0,0,0,0,0,0,0,0,0,0,0,0,0,0,0,0,0,0,0,0,0,0],"sum_hessian":[7.93E2,6.79E2,1.14E2,5.81E2,9.8E1,1.2E1,1.02E2,1.99E2,3.82E2,4.2E1,5.6E1,7E0,5E0,4.8E1,5.4E1,8.5E1,1.14E2,5.3E1,3.29E2,4E0,3.8E1,6E0,5E1,1E0,6E0,3E0,2E0,4.3E1,5E0,4.3E1,1.1E1,7.3E1,1.2E1,7.9E1,3.5E1,4.5E1,8E0,3.04E2,2.5E1,1.2E1,2.6E1,2E0,4E0,8E0,4.2E1,3E0,3E0,1E0,1E0,3E1,1.3E1,1E0,4E0,1E1,3.3E1,5E0,6E0,4.8E1,2.5E1,4E0,8E0,5.9E1,2E1,1.8E1,1.7E1,2.9E1,1.6E1,2E0,6E0,1.72E2,1.32E2,4E0,2.1E1,7E0,5E0,1.6E1,1E1,1E0,1E0,3E0,1E0,5E0,3E0,2.1E1,2.1E1,2E0,1E0,2E0,1E0,2.6E1,4E0,7E0,6E0,5E0,5E0,1.6E1,1.7E1,2E0,3E0,2E0,4E0],"tree_param":{"num_deleted":"0","num_feature":"4","num_nodes":"101","size_leaf_vector":"1"}},{"base_weights":[-8.8397515E-5,7.6569216E-3,-1.6866904E-3,3.050531E-3,3.0155687E-2,-1.570643E-2,-1.5228744E-4,1.3964698E-2,-1.1712438E-2,-2.5225086E-2,3.9170366E-2,-3.908271E-2,5.447028E-3,1.264605E-2,-2.0225209E-3,4.319946E-3,8.334915E-2,-4.19981E-2,1.6694034E-2,7.859723E-2,5.828903E-3,8.951188E-2,-5.6057554E-2,2.827651E-2,-4.6933345E-2,3.7015904E-2,-9.060309E-3,-1.888738E-2,7.739492E-4,2.3030587E-2,-5.7466444E-2,4.575628E-2,3.9225556E-2,4.5520846E-2,-8.8602625E-2,4.46744E-2,-5.1846094E-2,3.938412E-2,2.1595052E-2,-2.8249046E-2,3.0658752E-2,1.01240305E-2,3.852108E-2,-9.697278E-2,-3.7801392E-2,-2.512412E-2,6.555187E-2,-6.169298E-2,-1.0498029E-2,9.173814E-4,7.3063456E-2,2.0216122E-2,-3.79053E-2,1.2852982E-2,-8.982701E-2,3.6091206E-3,-2.6651135E-2,5.915482E-4,1.1746138E-2,-4.5269597E-2,-1.1601529E-2,2.0819092E-2,4.9760076E-3,-2.362347E-2,3.623336E-2,-3.3292864E-2,-5.1556514E-3,2.6477668E-2,-7.885991E-3,1.68318E-2,-2.2584891E-2,1.775238E-2,-1.0712809E-2,-2.2586733E-2,3.104269E-2,1.3299377E-2,-9.757314E-3,-6.2969245E-2,-7.3044896E-3,2.2360198E-2,-2.058528E-2,1.605143E-2,-3.905392E-2,4.5736007E-2,9.336618E-3,2.096754E-2,-2.2721963E-2,-1.6831134E-2,1.4246297E-2,1.4412069E-2,5.4649863E-2,3.284799E-2,-9.673024E-3,-4.539104E-2,-6.969513E-4,-1.5790389E-3,2.2103926E-2,-2.129192E-3,-4.9521342E-2,7.194551E-3,4.3426455E-5,-5.9102308E-2,-2.5485917E-3],"categories":[],"categories_nodes":[],"categories_segments":[],"categories_sizes":[],"default_left":[0,0,0,0,0,0,0,0,0,0,0,0,0,0,0,0,0,0,0,0,0,0,0,0,0,0,0,0,0,0,0,0,0,0,0,0,0,0,0,0,0,0,0,0,0,0,0,0,0,0,0,0,0,0,0,0,0,0,0,0,0,0,0,0,0,0,0,0,0,0,0,0,0,0,0,0,0,0,0,0,0,0,0,0,0,0,0,0,0,0,0,0,0,0,0,0,0,0,0,0,0,0,0],"id":8,"left_children":[1,3,5,7,9,11,13,15,17,-1,19,21,23,25,27,29,31,33,35,37,39,41,43,45,47,49,51,53,55,57,59,61,-1,63,65,67,69,-1,71,73,75,-1,-1,77,79,81,83,-1,85,87,89,91,93,95,97,99,101,-1,-1,-1,-1,-1,-1,-1,-1,-1,-1,-1,-1,-1,-1,-1,-1,-1,-1,-1,-1,-1,-1,-1,-1,-1,-1,-1,-1,-1,-1,-1,-1,-1,-1,-1,-1,-1,-1,-1,-1,-1,-1,-1,-1,-1,-1],"loss_changes":[9.842071E-3,1.4002791E-2,1.4173971E-2,1.8531868E-2,2.697969E-2,3.2354675E-2,1.4267425E-2,4.3806862E-2,4.285625E-2,0E0,2.8461948E-2,7.268688E-2,4.3180704E-2,4.0537916E-2,2.4538895E-2,6.9531195E-2,8.273311E-3,1.0192394E-1,5.217842E-2,2.719555E-2,1.1866035E-2,4.341997E-3,1.7249033E-2,5.1410124E-2,6.145025E-2,4.6778455E-2,3.5389908E-2,1.677766E-1,3.485259E-2,1.5541391E-2,1.8748883E-2,2.9864693E-3,0E0,9.367747E-2,2.3658529E-2,6.108324E-2,2.44643E-2,0E0,1.503393E-2,4.496861E-2,8.352817E-3,0E0,0E0,6.049814E-2,7.781111E-2,9.78297E-2,4.013536E-2,0E0,5.77414E-2,5.311856E-2,4.039055E-2,1.0188265E-1,8.43824E-2,5.768998E-2,1.4200164E-1,2.8651413E-2,1.2823087E-1,0E0,0E0,0E0,0E0,0E0,0E0,0E0,0E0,0E0,0E0,0E0,0E0,0E0,0E0,0E0,0E0,0E0,0E0,0E0,0E0,0E0,0E0,0E0,0E0,0E0,0E0,0E0,0E0,0E0,0E0,0E0,0E0,0E0,0E0,0E0,0E0,0E0,0E0,0E0,0E0,0E0,0E0,0E0,0E0,0E0,0E0],"parents":[2147483647,0,0,1,1,2,2,3,3,4,4,5,5,6,6,7,7,8,8,10,10,11,11,12,12,13,13,14,14,15,15,16,16,17,17,18,18,19,19,20,20,21,21,22,22,23,23,24,24,25,25,26,26,27,27,28,28,29,29,30,30,31,31,33,33,34,34,35,35,36,36,38,38,39,39,40,40,43,43,44,44,45,45,46,46,48,48,49,49,50,50,51,51,52,52,53,53,54,54,55,55,56,56],"right_children":[2,4,6,8,10,12,14,16,18,-1,20,22,24,26,28,30,32,34,36,38,40,42,44,46,48,50,52,54,56,58,60,62,-1,64,66,68,70,-1,72,74,76,-1,-1,78,80,82,84,-1,86,88,90,92,94,96,98,100,102,-1,-1,-1,-1,-1,-1,-1,-1,-1,-1,-1,-1,-1,-1,-1,-1,-1,-1,-1,-1,-1,-1,-1,-1,-1,-1,-1,-1,-1,-1,-1,-1,-1,-1,-1,-1,-1,-1,-1,-1,-1,-1,-1,-1,-1,-1],"split_conditions":[2E0,1.478244E0,3E0,1.9194463E-1,-1.183885E0,1E0,4E0,1.6102245E0,-1.3609391E-1,-2.5225086E-2,2.1316977E-1,-1.0943547E0,1.2609608E0,1E0,5E0,5.624334E-1,-2.3682183E-1,-1.183885E0,1.2609608E0,1E0,1E0,9.1169715E-1,-2.3682183E-1,1.9194463E-1,-1.0943547E0,1.9194463E-1,-2.3682183E-1,1E0,1.6102245E0,-6.6558826E-1,-1.0943547E0,1E0,3.9225556E-2,1E0,1E0,1E0,6.207111E-1,3.938412E-2,1E0,1.2609608E0,1.2609608E0,1.01240305E-2,3.852108E-2,-8.346213E-1,1.9194463E-1,-2.3682183E-1,-8.346213E-1,-6.169298E-2,6.207111E-1,-1.3609391E-1,1.6102245E0,-4.853576E-1,1.9194463E-1,1.2609608E0,1.9194463E-1,6E0,6E0,5.915482E-4,1.1746138E-2,-4.5269597E-2,-1.1601529E-2,2.0819092E-2,4.9760076E-3,-2.362347E-2,3.623336E-2,-3.3292864E-2,-5.1556514E-3,2.6477668E-2,-7.885991E-3,1.68318E-2,-2.2584891E-2,1.775238E-2,-1.0712809E-2,-2.2586733E-2,3.104269E-2,1.3299377E-2,-9.757314E-3,-6.2969245E-2,-7.3044896E-3,2.2360198E-2,-2.058528E-2,1.605143E-2,-3.905392E-2,4.5736007E-2,9.336618E-3,2.096754E-2,-2.2721963E-2,-1.6831134E-2,1.4246297E-2,1.4412069E-2,5.4649863E-2,3.284799E-2,-9.673024E-3,-4.539104E-2,-6.969513E-4,-1.5790389E-3,2.2103926E-2,-2.129192E-3,-4.9521342E-2,7.194551E-3,4.3426455E-5,-5.9102308E-2,-2.5485917E-3],"split_indices":[3,1,3,1,0,2,3,0,0,0,0,1,0,2,3,0,1,0,0,2,3,0,1,1,1,1,1,2,0,1,1,2,0,2,3,3,1,0,3,0,0,0,0,0,1,1,0,0,1,0,0,0,1,0,1,3,3,0,0,0,0,0,0,0,0,0,0,0,0,0,0,0,0,0,0,0,0,0,0,0,0,0,0,0,0,0,0,0,0,0,0,0,0,0,0,0,0,0,0,0,0,0,0],"split_type":[0,0,0,0,0,0,0,0,0,0,0,0,0,0,0,0,0,0,0,0,0,0,0,0,0,0,0,0,0,0,0,0,0,0,0,0,0,0,0,0,0,0,0,0,0,0,0,0,0,0,0,0,0,0,0,0,0,0,0,0,0,0,0,0,0,0,0,0,0,0,0,0,0,0,0,0,0,0,0,0,0,0,0,0,0,0,0,0,0,0,0,0,0,0,0,0,0,0,0,0,0,0,0],"sum_hessian":[7.93E2,1.35E2,6.58E2,1.13E2,2.2E1,6.4E1,5.94E2,6.5E1,4.8E1,1E0,2.1E1,3E1,3.4E1,7.5E1,5.19E2,5.8E1,7E0,2.3E1,2.5E1,9E0,1.2E1,3E0,2.7E1,2.4E1,1E1,3.5E1,4E1,7.3E1,4.46E2,4.5E1,1.3E1,5E0,2E0,8E0,1.5E1,1.8E1,7E0,4E0,5E0,5E0,7E0,2E0,1E0,7E0,2E1,1E1,1.4E1,1E0,9E0,1.8E1,1.7E1,2E1,2E1,5.1E1,2.2E1,4.05E2,4.1E1,2E1,2.5E1,1E0,1.2E1,2E0,3E0,3E0,5E0,1.1E1,4E0,1.1E1,7E0,1E0,6E0,3E0,2E0,4E0,1E0,6E0,1E0,2E0,5E0,4E0,1.6E1,6E0,4E0,3E0,1.1E1,4E0,5E0,8E0,1E1,1.5E1,2E0,7E0,1.3E1,4E0,1.6E1,4E1,1.1E1,1.1E1,1.1E1,5.8E1,3.47E2,3E0,3.8E1],"tree_param":{"num_deleted":"0","num_feature":"4","num_nodes":"103","size_leaf_vector":"1"}},{"base_weights":[-1.2803257E-4,-2.97861E-3,2.701433E-3,1.0994851E-3,-1.5911307E-2,-1.9011658E-2,4.711115E-3,-8.943364E-3,1.0187981E-2,1.5473238E-2,-4.2161472E-2,-8.0737144E-2,4.7463078E-2,4.5616888E-2,-1.6704448E-4,5.8379117E-3,-3.1606678E-2,6.9503E-2,3.5266727E-3,1.2540962E-1,-2.054951E-2,-1.293375E-1,-6.640372E-3,-1.439122E-1,-3.7156943E-2,1.7992387E-2,4.162342E-2,1.0069182E-1,-1.765629E-2,-2.310848E-3,1.9735351E-2,-1.1215438E-2,4.4781234E-2,1.8005494E-2,-6.5697424E-2,3.628403E-3,1.20335646E-1,5.357377E-2,-3.1477592E-3,-5.3761424E-3,6.027371E-2,-1.9899309E-1,4.2009786E-2,-1.5453596E-1,2.2968372E-2,8.265445E-2,-4.7938477E-2,-7.570729E-3,-1.8633561E-1,1.1998097E-2,-4.1539963E-2,5.834606E-2,-9.747831E-2,3.2732982E-2,1.5949686E-1,2.5373496E-2,-6.828644E-2,4.238413E-4,-2.8598536E-2,8.22154E-2,-1.0476756E-3,1.12291E-2,-9.590001E-3,5.5964217E-3,5.7103477E-2,-2.9397901E-2,1.8634714E-2,-6.7760784E-4,-2.6533509E-2,3.2298777E-2,-3.819643E-2,5.7693347E-2,2.1689458E-2,2.8791036E-2,9.943927E-3,-2.4853267E-2,1.7432631E-3,-2.3892399E-2,9.930146E-3,-6.301103E-2,-1.6596563E-2,-3.5487798E-3,3.1742334E-2,-3.0553069E-2,-5.971096E-2,5.03448E-2,-4.000903E-2,-6.456368E-3,-4.402774E-2,-6.8882525E-2,-1.986663E-3,2.7522681E-2,-1.2949311E-2,3.4436934E-2,6.849284E-3,4.0772352E-3,-4.1709483E-2,2.8275844E-2,-4.765768E-3,7.3847376E-2,2.2443254E-2,1.7704507E-2,-2.5202675E-2,-3.3538934E-2,4.2150514E-3,-3.8407883E-3,1.7591323E-3,-3.2394476E-2,6.450639E-3,4.0739793E-2,-4.393079E-2,-1.5433229E-2,1.2667227E-2],"categories":[],"categories_nodes":[],"categories_segments":[],"categories_sizes":[],"default_left":[0,0,0,0,0,0,0,0,0,0,0,0,0,0,0,0,0,0,0,0,0,0,0,0,0,0,0,0,0,0,0,0,0,0,0,0,0,0,0,0,0,0,0,0,0,0,0,0,0,0,0,0,0,0,0,0,0,0,0,0,0,0,0,0,0,0,0,0,0,0,0,0,0,0,0,0,0,0,0,0,0,0,0,0,0,0,0,0,0,0,0,0,0,0,0,0,0,0,0,0,0,0,0,0,0,0,0,0,0,0,0,0,0],"id":9,"left_children":[1,3,5,7,9,11,13,15,17,19,21,23,25,27,29,31,33,35,37,39,41,43,45,47,49,51,-1,53,55,57,59,61,63,65,67,69,71,73,75,77,-1,79,81,83,85,-1,87,-1,89,91,-1,93,95,97,99,101,103,105,107,109,111,-1,-1,-1,-1,-1,-1,-1,-1,-1,-1,-1,-1,-1,-1,-1,-1,-1,-1,-1,-1,-1,-1,-1,-1,-1,-1,-1,-1,-1,-1,-1,-1,-1,-1,-1,-1,-1,-1,-1,-1,-1,-1,-1,-1,-1,-1,-1,-1,-1,-1,-1,-1],"loss_changes":[6.4121415E-3,2.0902839E-2,1.7500494E-2,2.7655981E-2,7.8918085E-2,1.4334035E-1,7.3041044E-2,4.842346E-2,6.257826E-2,1.7682637E-1,1.6016376E-1,4.4209935E-2,4.3235917E-2,1.3768372E-1,1.4040326E-2,5.8944285E-2,9.758792E-2,5.3140648E-2,4.8269812E-2,1.0970165E-1,3.87912E-1,6.111756E-2,4.5600176E-1,3.0540302E-2,6.141986E-2,7.09228E-2,0E0,7.870194E-2,4.3126155E-2,2.1363053E-2,4.163892E-2,6.378303E-2,9.913203E-2,1.2888817E-1,4.8864916E-2,1.22693814E-1,1.7213926E-2,1.1541698E-2,9.1869764E-2,1.6923536E-2,0E0,2.6602745E-3,9.0557046E-2,1.0212392E-2,9.0313375E-2,0E0,8.560096E-2,0E0,3.7362993E-2,4.3549962E-2,0E0,1.9429892E-2,2.0350695E-2,3.4398563E-2,6.2313497E-2,4.5435496E-2,3.3812948E-2,1.9501869E-2,1.1368185E-1,1.1790216E-1,5.6690726E-2,0E0,0E0,0E0,0E0,0E0,0E0,0E0,0E0,0E0,0E0,0E0,0E0,0E0,0E0,0E0,0E0,0E0,0E0,0E0,0E0,0E0,0E0,0E0,0E0,0E0,0E0,0E0,0E0,0E0,0E0,0E0,0E0,0E0,0E0,0E0,0E0,0E0,0E0,0E0,0E0,0E0,0E0,0E0,0E0,0E0,0E0,0E0,0E0,0E0,0E0,0E0,0E0],"parents":[2147483647,0,0,1,1,2,2,3,3,4,4,5,5,6,6,7,7,8,8,9,9,10,10,11,11,12,12,13,13,14,14,15,15,16,16,17,17,18,18,19,19,20,20,21,21,22,22,23,23,24,24,25,25,27,27,28,28,29,29,30,30,31,31,32,32,33,33,34,34,35,35,36,36,37,37,38,38,39,39,41,41,42,42,43,43,44,44,46,46,48,48,49,49,51,51,52,52,53,53,54,54,55,55,56,56,57,57,58,58,59,59,60,60],"right_children":[2,4,6,8,10,12,14,16,18,20,22,24,26,28,30,32,34,36,38,40,42,44,46,48,50,52,-1,54,56,58,60,62,64,66,68,70,72,74,76,78,-1,80,82,84,86,-1,88,-1,90,92,-1,94,96,98,100,102,104,106,108,110,112,-1,-1,-1,-1,-1,-1,-1,-1,-1,-1,-1,-1,-1,-1,-1,-1,-1,-1,-1,-1,-1,-1,-1,-1,-1,-1,-1,-1,-1,-1,-1,-1,-1,-1,-1,-1,-1,-1,-1,-1,-1,-1,-1,-1,-1,-1,-1,-1,-1,-1,-1,-1],"split_conditions":[1.9194463E-1,-2.3682183E-1,-1.183885E0,1E0,1E0,1E0,-8.346213E-1,7E0,-1.183885E0,-1.183885E0,-8.346213E-1,1.0494776E0,8E0,1.0494776E0,1.1E1,-6.6558826E-1,-1.3609391E-1,5E0,1E0,2E0,-4.853576E-1,9E0,-4.853576E-1,1E0,9E0,6E0,4.162342E-2,5E0,1E0,1E1,6.207111E-1,-4.853576E-1,1.2609608E0,-1.183885E0,-1.0943547E0,4E0,8E0,-1.0943547E0,2E0,1E0,6.027371E-2,1.1E1,7E0,5E0,1E1,8.265445E-2,9E0,-7.570729E-3,8E0,1.478244E0,-4.1539963E-2,1.0494776E0,6.207111E-1,6.207111E-1,7E0,6E0,1.478244E0,-1.3609391E-1,1.0494776E0,1.2609608E0,5.624334E-1,1.12291E-2,-9.590001E-3,5.5964217E-3,5.7103477E-2,-2.9397901E-2,1.8634714E-2,-6.7760784E-4,-2.6533509E-2,3.2298777E-2,-3.819643E-2,5.7693347E-2,2.1689458E-2,2.8791036E-2,9.943927E-3,-2.4853267E-2,1.7432631E-3,-2.3892399E-2,9.930146E-3,-6.301103E-2,-1.6596563E-2,-3.5487798E-3,3.1742334E-2,-3.0553069E-2,-5.971096E-2,5.03448E-2,-4.000903E-2,-6.456368E-3,-4.402774E-2,-6.8882525E-2,-1.986663E-3,2.7522681E-2,-1.2949311E-2,3.4436934E-2,6.849284E-3,4.0772352E-3,-4.1709483E-2,2.8275844E-2,-4.765768E-3,7.3847376E-2,2.2443254E-2,1.7704507E-2,-2.5202675E-2,-3.3538934E-2,4.2150514E-3,-3.8407883E-3,1.7591323E-3,-3.2394476E-2,6.450639E-3,4.0739793E-2,-4.393079E-2,-1.5433229E-2,1.2667227E-2],"split_indices":[1,1,0,2,2,2,0,3,0,0,0,1,3,1,3,1,0,3,3,3,0,3,0,3,3,3,0,3,2,3,1,0,0,0,1,3,3,1,3,3,0,3,3,3,3,0,3,0,3,1,0,1,1,1,3,3,1,0,1,0,0,0,0,0,0,0,0,0,0,0,0,0,0,0,0,0,0,0,0,0,0,0,0,0,0,0,0,0,0,0,0,0,0,0,0,0,0,0,0,0,0,0,0,0,0,0,0,0,0,0,0,0,0],"split_type":[0,0,0,0,0,0,0,0,0,0,0,0,0,0,0,0,0,0,0,0,0,0,0,0,0,0,0,0,0,0,0,0,0,0,0,0,0,0,0,0,0,0,0,0,0,0,0,0,0,0,0,0,0,0,0,0,0,0,0,0,0,0,0,0,0,0,0,0,0,0,0,0,0,0,0,0,0,0,0,0,0,0,0,0,0,0,0,0,0,0,0,0,0,0,0,0,0,0,0,0,0,0,0,0,0,0,0,0,0,0,0,0,0],"sum_hessian":[7.93E2,3.95E2,3.98E2,3.01E2,9.4E1,3.3E1,3.65E2,1.43E2,1.58E2,4.3E1,5.1E1,1.7E1,1.6E1,3.8E1,3.27E2,8.7E1,5.6E1,1.5E1,1.43E2,1E1,3.3E1,1.4E1,3.7E1,6E0,1.1E1,1.3E1,3E0,2E1,1.8E1,2.96E2,3.1E1,6.1E1,2.6E1,2.3E1,3.3E1,7E0,8E0,1.6E1,1.27E2,4E0,6E0,8E0,2.5E1,1.2E1,2E0,4E0,3.3E1,2E0,4E0,8E0,3E0,1E1,3E0,1E1,1E1,1E1,8E0,2.69E2,2.7E1,7E0,2.4E1,1.8E1,4.3E1,2.3E1,3E0,6E0,1.7E1,9E0,2.4E1,4E0,3E0,2E0,6E0,4E0,1.2E1,1.2E1,1.15E2,1E0,3E0,7E0,1E0,1.4E1,1.1E1,7E0,5E0,1E0,1E0,2.7E1,6E0,3E0,1E0,3E0,5E0,3E0,7E0,1E0,2E0,4E0,6E0,4E0,6E0,8E0,2E0,5E0,3E0,7.8E1,1.91E2,1E1,1.7E1,6E0,1E0,1.1E1,1.3E1],"tree_param":{"num_deleted":"0","num_feature":"4","num_nodes":"113","size_leaf_vector":"1"}},{"base_weights":[-2.4778792E-5,-1.6942496E-3,5.218532E-3,1.3178414E-3,-2.8975636E-2,1.2290005E-2,-2.8004488E-2,-1.0182572E-3,1.7685506E-2,-5.7790652E-2,3.6245745E-2,5.572298E-3,6.1495613E-2,1.9321637E-2,-5.822169E-2,4.3834443E-3,-7.2426596E-3,-3.2290716E-2,4.3946482E-2,1.2062611E-3,-1.1147904E-1,6.3338526E-2,1.4800686E-2,2.2611706E-2,-4.8513425E-4,1.084578E-1,3.6976423E-2,6.625067E-2,-3.7071772E-2,-3.1016646E-2,-7.257736E-2,-9.299144E-3,1.6910123E-2,7.4453447E-3,-2.072864E-2,-9.693619E-2,-1.4514813E-2,8.148056E-2,4.5016804E-3,6.442393E-2,-6.2121075E-2,-8.735021E-2,-5.9466366E-2,-5.7928808E-2,9.3966715E-2,4.4139117E-2,-4.9266804E-2,-3.3368774E-2,1.3113239E-2,5.5973854E-2,2.2752061E-2,-5.9828386E-3,4.923648E-2,5.393398E-3,3.7727877E-2,-7.1889795E-2,3.331552E-2,-4.5023482E-2,-2.2522286E-3,-3.60096E-2,-3.7165157E-2,4.7067887E-4,-1.2481019E-2,1.2535873E-3,8.9892335E-3,7.2383857E-3,-4.309488E-3,3.0888554E-3,-9.649413E-3,-5.45177E-2,3.633326E-2,1.7501833E-2,-1.7469503E-2,1.9784553E-2,3.7261885E-2,-2.26061E-2,1.8365901E-2,1.2170398E-3,2.950197E-2,7.865457E-4,-4.210107E-2,-3.6918245E-2,-1.2871378E-2,1.3658687E-3,-3.6396332E-2,3.444323E-2,1.6298799E-2,7.6841367E-3,2.9610736E-2,-3.219347E-2,-7.077486E-4,-3.8453575E-2,-1.646183E-3,1.1370644E-2,1.0229882E-3,1.8383801E-3,1.0893667E-2,1.3196853E-2,-1.1191038E-2,2.937664E-3,2.8383346E-2,4.308361E-2,-1.951928E-2,3.105426E-3,-6.01282E-2,-2.7453788E-2,4.244577E-2,-3.0018661E-2,2.2534267E-3,-2.2505E-2,1.4102442E-2,-3.722664E-2,2.0648565E-3],"categories":[],"categories_nodes":[],"categories_segments":[],"categories_sizes":[],"default_left":[0,0,0,0,0,0,0,0,0,0,0,0,0,0,0,0,0,0,0,0,0,0,0,0,0,0,0,0,0,0,0,0,0,0,0,0,0,0,0,0,0,0,0,0,0,0,0,0,0,0,0,0,0,0,0,0,0,0,0,0,0,0,0,0,0,0,0,0,0,0,0,0,0,0,0,0,0,0,0,0,0,0,0,0,0,0,0,0,0,0,0,0,0,0,0,0,0,0,0,0,0,0,0,0,0,0,0,0,0,0,0,0,0],"id":10,"left_children":[1,3,5,7,9,11,13,15,17,19,21,23,25,27,29,31,33,35,37,39,41,-1,43,45,47,49,51,53,55,57,59,61,63,65,67,69,71,73,75,77,79,81,-1,83,85,87,89,91,93,-1,95,97,99,101,-1,103,105,107,109,111,-1,-1,-1,-1,-1,-1,-1,-1,-1,-1,-1,-1,-1,-1,-1,-1,-1,-1,-1,-1,-1,-1,-1,-1,-1,-1,-1,-1,-1,-1,-1,-1,-1,-1,-1,-1,-1,-1,-1,-1,-1,-1,-1,-1,-1,-1,-1,-1,-1,-1,-1,-1,-1],"loss_changes":[6.959163E-3,4.9589116E-2,4.545182E-2,2.0818654E-2,1.1485596E-1,5.2214593E-2,4.974709E-2,1.6069617E-2,9.066392E-2,1.3316734E-1,6.813217E-2,1.4564291E-2,1.786764E-2,3.950686E-2,5.950369E-3,4.403498E-2,4.4128567E-2,2.6172154E-2,6.625679E-2,8.8073626E-2,2.8731048E-2,0E0,1.0908207E-1,5.9426844E-2,4.738979E-2,3.5927802E-2,7.6681357E-3,2.8294131E-2,1.955027E-2,3.5246834E-3,1.9929118E-2,4.324872E-2,2.214517E-2,3.927884E-2,4.148821E-2,1.1444943E-1,6.709639E-2,7.0720166E-3,1.0878552E-1,2.2122562E-2,5.607105E-2,2.487655E-2,0E0,4.0160947E-2,1.1982396E-3,2.6785158E-2,2.4251522E-2,8.124327E-2,1.7910779E-2,0E0,6.791842E-4,7.90162E-3,1.8761024E-2,5.803682E-2,0E0,5.4930124E-2,5.3455863E-2,1.8100329E-2,1.7864004E-2,3.485548E-2,0E0,0E0,0E0,0E0,0E0,0E0,0E0,0E0,0E0,0E0,0E0,0E0,0E0,0E0,0E0,0E0,0E0,0E0,0E0,0E0,0E0,0E0,0E0,0E0,0E0,0E0,0E0,0E0,0E0,0E0,0E0,0E0,0E0,0E0,0E0,0E0,0E0,0E0,0E0,0E0,0E0,0E0,0E0,0E0,0E0,0E0,0E0,0E0,0E0,0E0,0E0,0E0,0E0],"parents":[2147483647,0,0,1,1,2,2,3,3,4,4,5,5,6,6,7,7,8,8,9,9,10,10,11,11,12,12,13,13,14,14,15,15,16,16,17,17,18,18,19,19,20,20,22,22,23,23,24,24,25,25,26,26,27,27,28,28,29,29,30,30,31,31,32,32,33,33,34,34,35,35,36,36,37,37,38,38,39,39,40,40,41,41,43,43,44,44,45,45,46,46,47,47,48,48,50,50,51,51,52,52,53,53,55,55,56,56,57,57,58,58,59,59],"right_children":[2,4,6,8,10,12,14,16,18,20,22,24,26,28,30,32,34,36,38,40,42,-1,44,46,48,50,52,54,56,58,60,62,64,66,68,70,72,74,76,78,80,82,-1,84,86,88,90,92,94,-1,96,98,100,102,-1,104,106,108,110,112,-1,-1,-1,-1,-1,-1,-1,-1,-1,-1,-1,-1,-1,-1,-1,-1,-1,-1,-1,-1,-1,-1,-1,-1,-1,-1,-1,-1,-1,-1,-1,-1,-1,-1,-1,-1,-1,-1,-1,-1,-1,-1,-1,-1,-1,-1,-1,-1,-1,-1,-1,-1,-1],"split_conditions":[9E0,8E0,1.2609608E0,7E0,1.2609608E0,9.1169715E-1,1E1,2.1316977E-1,-1.3609391E-1,-1.3609391E-1,-1.0943547E0,-8.346213E-1,-2.3682183E-1,1E0,-6.6558826E-1,1.9194463E-1,1E0,-6.6558826E-1,9.1169715E-1,-2.3682183E-1,6.207111E-1,6.3338526E-2,6.207111E-1,1.0494776E0,-4.853576E-1,1E0,1.9194463E-1,1.0494776E0,1.6102245E0,1.1E1,1E0,-2.3682183E-1,1E0,6.207111E-1,-6.6558826E-1,-8.346213E-1,1.9194463E-1,1.0494776E0,-2.3682183E-1,1E0,1E0,5.624334E-1,-5.9466366E-2,-6.6558826E-1,1.0494776E0,1.9194463E-1,1E0,-6.6558826E-1,-1.3609391E-1,5.5973854E-2,1E1,1E1,1.1E1,-1.0943547E0,3.7727877E-2,1.0494776E0,6.207111E-1,1E0,1.6102245E0,1.0494776E0,-3.7165157E-2,4.7067887E-4,-1.2481019E-2,1.2535873E-3,8.9892335E-3,7.2383857E-3,-4.309488E-3,3.0888554E-3,-9.649413E-3,-5.45177E-2,3.633326E-2,1.7501833E-2,-1.7469503E-2,1.9784553E-2,3.7261885E-2,-2.26061E-2,1.8365901E-2,1.2170398E-3,2.950197E-2,7.865457E-4,-4.210107E-2,-3.6918245E-2,-1.2871378E-2,1.3658687E-3,-3.6396332E-2,3.444323E-2,1.6298799E-2,7.6841367E-3,2.9610736E-2,-3.219347E-2,-7.077486E-4,-3.8453575E-2,-1.646183E-3,1.1370644E-2,1.0229882E-3,1.8383801E-3,1.0893667E-2,1.3196853E-2,-1.1191038E-2,2.937664E-3,2.8383346E-2,4.308361E-2,-1.951928E-2,3.105426E-3,-6.01282E-2,-2.7453788E-2,4.244577E-2,-3.0018661E-2,2.2534267E-3,-2.2505E-2,1.4102442E-2,-3.722664E-2,2.0648565E-3],"split_indices":[3,3,0,3,0,0,3,0,0,0,1,0,1,2,1,1,2,1,0,1,1,0,1,1,0,2,1,1,0,3,2,1,2,1,1,0,1,1,1,2,2,0,0,1,1,1,2,1,0,0,3,3,3,1,0,1,1,2,0,1,0,0,0,0,0,0,0,0,0,0,0,0,0,0,0,0,0,0,0,0,0,0,0,0,0,0,0,0,0,0,0,0,0,0,0,0,0,0,0,0,0,0,0,0,0,0,0,0,0,0,0,0,0],"split_type":[0,0,0,0,0,0,0,0,0,0,0,0,0,0,0,0,0,0,0,0,0,0,0,0,0,0,0,0,0,0,0,0,0,0,0,0,0,0,0,0,0,0,0,0,0,0,0,0,0,0,0,0,0,0,0,0,0,0,0,0,0,0,0,0,0,0,0,0,0,0,0,0,0,0,0,0,0,0,0,0,0,0,0,0,0,0,0,0,0,0,0,0,0,0,0,0,0,0,0,0,0,0,0,0,0,0,0,0,0,0,0,0,0],"sum_hessian":[7.93E2,6.02E2,1.91E2,5.43E2,5.9E1,1.58E2,3.3E1,4.76E2,6.7E1,4.1E1,1.8E1,1.4E2,1.8E1,1.3E1,2E1,2.55E2,2.21E2,2.3E1,4.4E1,2E1,2.1E1,1E0,1.7E1,3.6E1,1.04E2,5E0,1.3E1,7E0,6E0,8E0,1.2E1,1.22E2,1.33E2,1.06E2,1.15E2,4E0,1.9E1,2.2E1,2.2E1,1E1,1E1,1.8E1,3E0,9E0,8E0,2.8E1,8E0,3E1,7.4E1,2E0,3E0,3E0,1E1,4E0,3E0,4E0,2E0,5E0,3E0,8E0,4E0,9.2E1,3E1,6.8E1,6.5E1,6E1,4.6E1,3.1E1,8.4E1,3E0,1E0,7E0,1.2E1,1.8E1,4E0,9E0,1.3E1,4E0,6E0,6E0,4E0,9E0,9E0,5E0,4E0,4E0,4E0,2.2E1,6E0,3E0,5E0,6E0,2.4E1,2E1,5.4E1,2E0,1E0,1E0,2E0,6E0,4E0,1E0,3E0,3E0,1E0,1E0,1E0,2E0,3E0,1E0,2E0,2E0,6E0],"tree_param":{"num_deleted":"0","num_feature":"4","num_nodes":"113","size_leaf_vector":"1"}},{"base_weights":[-4.51298E-5,5.8486112E-3,-1.2613721E-3,1.1741341E-4,2.2383858E-2,-1.0821396E-2,-2.1487981E-4,9.830033E-3,-7.35464E-2,4.580705E-2,2.5261089E-3,5.1437574E-4,-3.8292967E-2,9.878507E-4,-1.18088005E-2,-7.239822E-4,3.0280514E-2,-1.0784117E-1,-2.1278108E-2,6.8807304E-3,9.4872214E-2,-1.119462E-2,6.020768E-2,-8.311512E-3,7.631414E-2,-5.7801973E-2,-1.4954666E-2,-4.6161187E-4,1.1587178E-2,-2.529755E-2,6.1443284E-2,1.8655919E-2,-1.7732866E-2,-3.2202024E-3,6.18887E-2,-5.7320543E-2,-6.212521E-2,-5.457799E-2,3.0214438E-2,1.0338911E-1,-4.9249876E-2,4.4134155E-2,1.8912531E-2,2.2856167E-2,-2.3229126E-2,2.7569829E-2,1.9010624E-2,-2.9304862E-2,1.9748766E-2,4.4060525E-2,-5.903456E-3,-8.466841E-2,3.3109188E-2,1.7128708E-2,-4.0104214E-2,-4.3243165E-3,1.21307885E-2,2.1016385E-2,-8.4636085E-2,-1.2623015E-2,-6.2269237E-2,9.939783E-2,-4.7598425E-2,-4.8920084E-3,1.2278367E-2,-2.2761578E-2,-6.009011E-4,8.449402E-3,-1.4278713E-2,2.8265556E-2,9.9206865E-3,-3.512913E-2,9.5637115E-3,5.0238527E-2,-5.532355E-2,-3.793709E-2,5.1533587E-2,3.268598E-3,3.917658E-2,-2.4828156E-2,-1.0280282E-3,3.8945865E-2,-1.8398896E-2,-8.632419E-3,1.5680537E-2,-7.1101696E-3,1.566495E-2,-3.0574729E-3,-4.9821533E-2,1.901756E-2,-7.760762E-3,-3.4400963E-3,-3.788876E-2,1.9047797E-3,1.29943555E-2,-4.225695E-2,5.08679E-3,-4.400911E-5,-1.0439586E-2,-3.5759842E-4,1.8309198E-2,1.0962499E-2,2.1619687E-3,-1.4319857E-2,-4.0372834E-2,3.8032935E-4,-1.894067E-2,-3.8522992E-2,-3.9442875E-3,1.2000672E-2,3.454669E-2,8.90657E-3,-3.0325864E-2],"categories":[],"categories_nodes":[],"categories_segments":[],"categories_sizes":[],"default_left":[0,0,0,0,0,0,0,0,0,0,0,0,0,0,0,0,0,0,0,0,0,0,0,0,0,0,0,0,0,0,0,0,0,0,0,0,0,0,0,0,0,0,0,0,0,0,0,0,0,0,0,0,0,0,0,0,0,0,0,0,0,0,0,0,0,0,0,0,0,0,0,0,0,0,0,0,0,0,0,0,0,0,0,0,0,0,0,0,0,0,0,0,0,0,0,0,0,0,0,0,0,0,0,0,0,0,0,0,0,0,0,0,0],"id":11,"left_children":[1,3,5,7,9,11,13,15,17,19,21,23,25,27,29,31,33,35,37,39,41,43,45,47,49,51,53,55,57,59,61,63,65,67,69,-1,71,73,75,77,79,-1,81,83,-1,-1,85,87,89,-1,-1,91,93,-1,95,97,99,101,103,105,107,109,111,-1,-1,-1,-1,-1,-1,-1,-1,-1,-1,-1,-1,-1,-1,-1,-1,-1,-1,-1,-1,-1,-1,-1,-1,-1,-1,-1,-1,-1,-1,-1,-1,-1,-1,-1,-1,-1,-1,-1,-1,-1,-1,-1,-1,-1,-1,-1,-1,-1,-1],"loss_changes":[5.698942E-3,1.2885651E-2,6.5906346E-3,7.370076E-2,1.6163902E-2,2.0261442E-2,8.308561E-3,1.966288E-2,1.9215696E-2,2.9906038E-2,1.6502665E-2,3.2077294E-2,7.786421E-3,8.301547E-3,5.688679E-2,2.0438284E-2,3.3025097E-2,1.47635415E-2,1.1937219E-2,5.9262637E-2,2.4995506E-2,4.0111244E-2,3.4753615E-3,2.5909143E-2,3.675345E-2,2.7227897E-2,2.0410115E-2,2.3205444E-2,6.0753826E-2,2.1706726E-2,4.1978844E-2,2.3249302E-2,3.0027166E-2,2.3624029E-2,1.1792082E-2,0E0,3.473849E-2,1.4619501E-1,8.825978E-2,8.64033E-3,1.0465335E-2,0E0,4.355947E-2,1.9727003E-2,0E0,0E0,5.4923478E-3,6.36591E-2,3.9467175E-2,0E0,0E0,2.2929281E-2,5.442663E-4,0E0,4.837991E-2,4.6463057E-2,7.303878E-2,1.2600742E-2,4.633989E-3,2.6041409E-2,3.729899E-2,1.9451156E-3,1.5402833E-2,0E0,0E0,0E0,0E0,0E0,0E0,0E0,0E0,0E0,0E0,0E0,0E0,0E0,0E0,0E0,0E0,0E0,0E0,0E0,0E0,0E0,0E0,0E0,0E0,0E0,0E0,0E0,0E0,0E0,0E0,0E0,0E0,0E0,0E0,0E0,0E0,0E0,0E0,0E0,0E0,0E0,0E0,0E0,0E0,0E0,0E0,0E0,0E0,0E0,0E0],"parents":[2147483647,0,0,1,1,2,2,3,3,4,4,5,5,6,6,7,7,8,8,9,9,10,10,11,11,12,12,13,13,14,14,15,15,16,16,17,17,18,18,19,19,20,20,21,21,22,22,23,23,24,24,25,25,26,26,27,27,28,28,29,29,30,30,31,31,32,32,33,33,34,34,36,36,37,37,38,38,39,39,40,40,42,42,43,43,46,46,47,47,48,48,51,51,52,52,54,54,55,55,56,56,57,57,58,58,59,59,60,60,61,61,62,62],"right_children":[2,4,6,8,10,12,14,16,18,20,22,24,26,28,30,32,34,36,38,40,42,44,46,48,50,52,54,56,58,60,62,64,66,68,70,-1,72,74,76,78,80,-1,82,84,-1,-1,86,88,90,-1,-1,92,94,-1,96,98,100,102,104,106,108,110,112,-1,-1,-1,-1,-1,-1,-1,-1,-1,-1,-1,-1,-1,-1,-1,-1,-1,-1,-1,-1,-1,-1,-1,-1,-1,-1,-1,-1,-1,-1,-1,-1,-1,-1,-1,-1,-1,-1,-1,-1,-1,-1,-1,-1,-1,-1,-1,-1,-1,-1],"split_conditions":[2E0,9.1169715E-1,3E0,5.624334E-1,1.2609608E0,1.0494776E0,1.6102245E0,-1.3609391E-1,1.0494776E0,6.207111E-1,1.0494776E0,1.6102245E0,1E0,1.2609608E0,1.478244E0,1.9194463E-1,-2.3682183E-1,1E0,1E0,-6.6558826E-1,1.0494776E0,6.207111E-1,1E0,1.9194463E-1,-2.3682183E-1,5.624334E-1,-1.183885E0,1E1,1.1E1,1.0494776E0,1E1,1E0,6.207111E-1,1E0,1E0,-5.7320543E-2,-6.6558826E-1,1.478244E0,1.478244E0,1E0,1.9194463E-1,4.4134155E-2,1E0,1.6102245E0,-2.3229126E-2,2.7569829E-2,1.6102245E0,1.2609608E0,2.1316977E-1,4.4060525E-2,-5.903456E-3,-4.853576E-1,1.2609608E0,1.7128708E-2,-1.3609391E-1,9.1169715E-1,5.624334E-1,7E0,1.478244E0,9E0,6E0,7E0,1E0,-4.8920084E-3,1.2278367E-2,-2.2761578E-2,-6.009011E-4,8.449402E-3,-1.4278713E-2,2.8265556E-2,9.9206865E-3,-3.512913E-2,9.5637115E-3,5.0238527E-2,-5.532355E-2,-3.793709E-2,5.1533587E-2,3.268598E-3,3.917658E-2,-2.4828156E-2,-1.0280282E-3,3.8945865E-2,-1.8398896E-2,-8.632419E-3,1.5680537E-2,-7.1101696E-3,1.566495E-2,-3.0574729E-3,-4.9821533E-2,1.901756E-2,-7.760762E-3,-3.4400963E-3,-3.788876E-2,1.9047797E-3,1.29943555E-2,-4.225695E-2,5.08679E-3,-4.400911E-5,-1.0439586E-2,-3.5759842E-4,1.8309198E-2,1.0962499E-2,2.1619687E-3,-1.4319857E-2,-4.0372834E-2,3.8032935E-4,-1.894067E-2,-3.8522992E-2,-3.9442875E-3,1.2000672E-2,3.454669E-2,8.90657E-3,-3.0325864E-2],"split_indices":[3,0,3,0,0,1,0,0,1,1,1,0,2,0,1,1,1,2,2,1,1,1,3,1,1,0,0,3,3,1,3,3,1,3,3,0,1,1,1,2,1,0,2,0,0,0,0,0,0,0,0,0,0,0,0,0,0,3,1,3,3,3,2,0,0,0,0,0,0,0,0,0,0,0,0,0,0,0,0,0,0,0,0,0,0,0,0,0,0,0,0,0,0,0,0,0,0,0,0,0,0,0,0,0,0,0,0,0,0,0,0,0,0],"split_type":[0,0,0,0,0,0,0,0,0,0,0,0,0,0,0,0,0,0,0,0,0,0,0,0,0,0,0,0,0,0,0,0,0,0,0,0,0,0,0,0,0,0,0,0,0,0,0,0,0,0,0,0,0,0,0,0,0,0,0,0,0,0,0,0,0,0,0,0,0,0,0,0,0,0,0,0,0,0,0,0,0,0,0,0,0,0,0,0,0,0,0,0,0,0,0,0,0,0,0,0,0,0,0,0,0,0,0,0,0,0,0,0,0],"sum_hessian":[7.93E2,1.35E2,6.58E2,1.01E2,3.4E1,6.4E1,5.94E2,9E1,1.1E1,1.5E1,1.9E1,4.6E1,1.8E1,5.39E2,5.5E1,6E1,3E1,6E0,5E0,9E0,6E0,1.6E1,3E0,4.2E1,4E0,9E0,9E0,4.75E2,6.4E1,4.7E1,8E0,2.8E1,3.2E1,1.5E1,1.5E1,1E0,5E0,3E0,2E0,3E0,6E0,3E0,3E0,1.1E1,5E0,1E0,2E0,2.4E1,1.8E1,2E0,2E0,7E0,2E0,2E0,7E0,3.64E2,1.11E2,5.9E1,5E0,3.6E1,1.1E1,6E0,2E0,1.1E1,1.7E1,6E0,2.6E1,9E0,6E0,6E0,9E0,3E0,2E0,1E0,2E0,1E0,1E0,1E0,2E0,3E0,3E0,1E0,2E0,4E0,7E0,1E0,1E0,2.2E1,2E0,9E0,9E0,3E0,4E0,1E0,1E0,2E0,5E0,3.21E2,4.3E1,8.8E1,2.3E1,2.7E1,3.2E1,4E0,1E0,2.9E1,7E0,4E0,7E0,2E0,4E0,1E0,1E0],"tree_param":{"num_deleted":"0","num_feature":"4","num_nodes":"113","size_leaf_vector":"1"}},{"base_weights":[-1.2821349E-4,4.4118194E-3,-1.0649605E-3,-4.8637844E-4,1.8560516E-2,6.667525E-3,-2.1601142E-3,7.0610303E-3,-5.7680365E-2,1.2606849E-3,4.4420213E-2,2.1789942E-2,-8.986354E-3,-6.731004E-3,1.319772E-3,-7.0328494E-3,1.559129E-2,-8.732968E-2,-1.3476106E-2,4.5801222E-2,-1.8304594E-2,9.433805E-2,6.206075E-3,-6.6164527E-3,6.395326E-2,-2.5818143E-2,5.372869E-2,1.7466027E-2,-1.0235908E-2,1.7701907E-2,-3.756126E-3,-4.9766794E-2,2.5184965E-3,-7.4624126E-3,3.02954E-2,-4.8722465E-2,-4.7748554E-2,-4.1446988E-2,2.8310439E-2,8.298367E-2,-2.8315336E-3,-4.7806785E-2,-5.484345E-4,3.0623972E-2,3.556173E-2,-1.54329315E-2,2.6897721E-2,-4.647742E-2,1.368161E-2,1.3415632E-1,-3.179473E-2,-5.9097926E-3,-8.7293014E-2,7.290554E-2,2.38061E-2,-2.0249749E-2,6.740415E-2,-7.092096E-4,-3.2795943E-2,6.1983295E-2,-1.9427346E-3,5.6603425E-3,-1.3068873E-2,2.0158064E-2,-8.168751E-3,1.2203761E-2,-9.320047E-3,5.041558E-2,2.1298E-3,-2.7225075E-2,7.6509686E-3,6.970811E-3,-3.532441E-2,-3.1063853E-2,4.380355E-2,2.7783127E-3,3.1341262E-2,1.9158304E-3,-4.572666E-3,-2.3376836E-2,2.485043E-3,1.012346E-2,-2.0699376E-2,-3.5504133E-3,1.7331202E-2,1.1482889E-2,-1.1914617E-2,-1.9318775E-3,-2.847444E-2,1.2078851E-2,-1.3857395E-2,1.082786E-2,6.750036E-2,-3.0616697E-2,1.9194033E-2,1.4967449E-2,-1.1515934E-2,-4.0439054E-2,-9.549406E-3,3.2894153E-2,3.5586178E-3,-6.3735326E-3,1.21140545E-2,5.8321413E-3,-5.218446E-2,4.298316E-2,-8.681118E-3,3.0241057E-3,-3.4469038E-3,-3.9070904E-2,-4.4430695E-3,1.1159574E-2,4.4617653E-2,-3.2119684E-2,5.468554E-3,8.912153E-3,-6.491228E-4,-1.8105373E-2,9.0263755E-5],"categories":[],"categories_nodes":[],"categories_segments":[],"categories_sizes":[],"default_left":[0,0,0,0,0,0,0,0,0,0,0,0,0,0,0,0,0,0,0,0,0,0,0,0,0,0,0,0,0,0,0,0,0,0,0,0,0,0,0,0,0,0,0,0,0,0,0,0,0,0,0,0,0,0,0,0,0,0,0,0,0,0,0,0,0,0,0,0,0,0,0,0,0,0,0,0,0,0,0,0,0,0,0,0,0,0,0,0,0,0,0,0,0,0,0,0,0,0,0,0,0,0,0,0,0,0,0,0,0,0,0,0,0,0,0,0,0,0,0],"id":12,"left_children":[1,3,5,7,9,11,13,15,17,19,21,23,25,27,29,31,33,35,37,39,41,43,45,47,49,51,53,55,57,59,61,-1,63,65,67,-1,69,71,73,75,77,79,81,83,-1,85,-1,87,89,91,93,95,97,99,101,103,105,107,109,111,113,115,117,-1,-1,-1,-1,-1,-1,-1,-1,-1,-1,-1,-1,-1,-1,-1,-1,-1,-1,-1,-1,-1,-1,-1,-1,-1,-1,-1,-1,-1,-1,-1,-1,-1,-1,-1,-1,-1,-1,-1,-1,-1,-1,-1,-1,-1,-1,-1,-1,-1,-1,-1,-1,-1,-1,-1,-1],"loss_changes":[3.381471E-3,9.434251E-3,5.594986E-3,4.4437252E-2,1.5601895E-2,1.9607222E-2,9.202653E-3,1.1050076E-2,1.4550649E-2,2.001023E-2,2.6120465E-2,5.072686E-2,4.466704E-2,2.138085E-2,2.742417E-2,5.352305E-2,1.954817E-2,1.3047088E-2,8.186221E-3,1.2892966E-2,8.35531E-3,5.6215525E-3,1.763626E-2,2.1672495E-2,1.1853609E-1,3.9871603E-2,3.4287944E-3,6.163548E-2,4.7044806E-2,6.7972E-2,2.217266E-2,0E0,6.724331E-2,2.7399924E-2,1.1064629E-1,0E0,2.1214131E-2,2.2477524E-2,6.167809E-2,5.368864E-3,5.5492704E-4,1.0780757E-2,2.8149273E-2,4.1415384E-3,0E0,1.1953694E-2,0E0,1.6842732E-2,3.0506719E-2,8.0964684E-2,6.0363367E-2,4.903337E-2,1.6786363E-2,9.913541E-3,4.5912927E-3,1.1928779E-1,1.0648183E-1,1.8144885E-2,1.1198596E-1,4.6064764E-2,1.1857691E-1,2.377048E-2,8.030166E-2,0E0,0E0,0E0,0E0,0E0,0E0,0E0,0E0,0E0,0E0,0E0,0E0,0E0,0E0,0E0,0E0,0E0,0E0,0E0,0E0,0E0,0E0,0E0,0E0,0E0,0E0,0E0,0E0,0E0,0E0,0E0,0E0,0E0,0E0,0E0,0E0,0E0,0E0,0E0,0E0,0E0,0E0,0E0,0E0,0E0,0E0,0E0,0E0,0E0,0E0,0E0,0E0,0E0,0E0,0E0,0E0],"parents":[2147483647,0,0,1,1,2,2,3,3,4,4,5,5,6,6,7,7,8,8,9,9,10,10,11,11,12,12,13,13,14,14,15,15,16,16,17,17,18,18,19,19,20,20,21,21,22,22,23,23,24,24,25,25,26,26,27,27,28,28,29,29,30,30,32,32,33,33,34,34,36,36,37,37,38,38,39,39,40,40,41,41,42,42,43,43,45,45,47,47,48,48,49,49,50,50,51,51,52,52,53,53,54,54,55,55,56,56,57,57,58,58,59,59,60,60,61,61,62,62],"right_children":[2,4,6,8,10,12,14,16,18,20,22,24,26,28,30,32,34,36,38,40,42,44,46,48,50,52,54,56,58,60,62,-1,64,66,68,-1,70,72,74,76,78,80,82,84,-1,86,-1,88,90,92,94,96,98,100,102,104,106,108,110,112,114,116,118,-1,-1,-1,-1,-1,-1,-1,-1,-1,-1,-1,-1,-1,-1,-1,-1,-1,-1,-1,-1,-1,-1,-1,-1,-1,-1,-1,-1,-1,-1,-1,-1,-1,-1,-1,-1,-1,-1,-1,-1,-1,-1,-1,-1,-1,-1,-1,-1,-1,-1,-1,-1,-1,-1,-1,-1],"split_conditions":[2E0,9.1169715E-1,-1.0943547E0,5.624334E-1,1E0,5.624334E-1,1.9194463E-1,-8.346213E-1,1.0494776E0,-6.6558826E-1,1E0,-1.3609391E-1,9E0,-1.183885E0,6.207111E-1,-1.0943547E0,-2.3682183E-1,1E0,1E0,1.2609608E0,1.9194463E-1,1.9194463E-1,1.6102245E0,6E0,8E0,7E0,1E1,7E0,-2.3682183E-1,6E0,2.1316977E-1,-4.9766794E-2,-2.3682183E-1,-1.0943547E0,1.9194463E-1,-4.8722465E-2,-6.6558826E-1,1.478244E0,1E0,1E0,-1.0943547E0,1.6102245E0,1.6102245E0,1.2609608E0,3.556173E-2,1.2609608E0,2.6897721E-2,1E0,1.1E1,2.1316977E-1,1E1,9.1169715E-1,8E0,1E0,1E0,6E0,1E1,7E0,-8.346213E-1,1.2609608E0,7E0,4E0,5.624334E-1,2.0158064E-2,-8.168751E-3,1.2203761E-2,-9.320047E-3,5.041558E-2,2.1298E-3,-2.7225075E-2,7.6509686E-3,6.970811E-3,-3.532441E-2,-3.1063853E-2,4.380355E-2,2.7783127E-3,3.1341262E-2,1.9158304E-3,-4.572666E-3,-2.3376836E-2,2.485043E-3,1.012346E-2,-2.0699376E-2,-3.5504133E-3,1.7331202E-2,1.1482889E-2,-1.1914617E-2,-1.9318775E-3,-2.847444E-2,1.2078851E-2,-1.3857395E-2,1.082786E-2,6.750036E-2,-3.0616697E-2,1.9194033E-2,1.4967449E-2,-1.1515934E-2,-4.0439054E-2,-9.549406E-3,3.2894153E-2,3.5586178E-3,-6.3735326E-3,1.21140545E-2,5.8321413E-3,-5.218446E-2,4.298316E-2,-8.681118E-3,3.0241057E-3,-3.4469038E-3,-3.9070904E-2,-4.4430695E-3,1.1159574E-2,4.4617653E-2,-3.2119684E-2,5.468554E-3,8.912153E-3,-6.491228E-4,-1.8105373E-2,9.0263755E-5],"split_indices":[3,0,1,0,3,0,1,0,1,1,2,0,3,0,1,1,1,2,3,0,1,1,0,3,3,3,3,3,1,3,0,0,1,1,1,0,1,1,2,2,1,0,0,0,0,0,0,2,3,0,3,0,3,2,2,3,3,3,0,0,3,3,0,0,0,0,0,0,0,0,0,0,0,0,0,0,0,0,0,0,0,0,0,0,0,0,0,0,0,0,0,0,0,0,0,0,0,0,0,0,0,0,0,0,0,0,0,0,0,0,0,0,0,0,0,0,0,0,0],"split_type":[0,0,0,0,0,0,0,0,0,0,0,0,0,0,0,0,0,0,0,0,0,0,0,0,0,0,0,0,0,0,0,0,0,0,0,0,0,0,0,0,0,0,0,0,0,0,0,0,0,0,0,0,0,0,0,0,0,0,0,0,0,0,0,0,0,0,0,0,0,0,0,0,0,0,0,0,0,0,0,0,0,0,0,0,0,0,0,0,0,0,0,0,0,0,0,0,0,0,0,0,0,0,0,0,0,0,0,0,0,0,0,0,0,0,0,0,0,0,0],"sum_hessian":[7.93E2,1.35E2,6.58E2,1.01E2,3.4E1,8.1E1,5.77E2,9E1,1.1E1,2.1E1,1.3E1,4.1E1,4E1,2.49E2,3.28E2,3.4E1,5.6E1,6E0,5E0,6E0,1.5E1,5E0,8E0,2.5E1,1.6E1,3.2E1,8E0,3.1E1,2.18E2,7.7E1,2.51E2,1E0,3.3E1,2.2E1,3.4E1,1E0,5E0,3E0,2E0,3E0,3E0,5E0,1E1,2E0,3E0,7E0,1E0,8E0,1.7E1,9E0,7E0,2.5E1,7E0,4E0,4E0,1.8E1,1.3E1,1.54E2,6.4E1,2.3E1,5.4E1,1.25E2,1.26E2,1E1,2.3E1,7E0,1.5E1,4E0,3E1,3E0,2E0,2E0,1E0,1E0,1E0,1E0,2E0,2E0,1E0,3E0,2E0,7E0,3E0,1E0,1E0,2E0,5E0,5E0,3E0,1.2E1,5E0,5E0,4E0,4E0,3E0,9E0,1.6E1,3E0,4E0,2E0,2E0,1E0,3E0,1.5E1,3E0,7E0,6E0,7.7E1,7.7E1,9E0,5.5E1,1.9E1,4E0,8E0,4.6E1,3E1,9.5E1,2.7E1,9.9E1],"tree_param":{"num_deleted":"0","num_feature":"4","num_nodes":"119","size_leaf_vector":"1"}},{"base_weights":[-8.5581254E-5,-6.47055E-3,6.789369E-4,-2.3611892E-2,1.4352877E-2,3.0432807E-3,-4.397991E-3,-9.372203E-2,-1.1065968E-2,-1.4509886E-2,6.150062E-2,-2.23293E-3,1.2155807E-2,-1.9466298E-2,6.8019447E-4,-4.2301778E-2,-6.2340397E-2,2.2311315E-2,-5.495424E-2,7.180067E-2,-3.436907E-2,2.6832437E-2,7.1667925E-2,-6.206865E-3,5.8537126E-3,2.5773799E-2,-1.6463725E-2,-4.320085E-2,3.0276533E-2,1.1780371E-2,-9.317522E-3,1.679798E-2,-1.0610908E-1,-2.7865274E-2,8.414413E-2,-1.0571102E-1,-2.0766592E-2,5.7207944E-4,2.6639214E-2,6.560275E-2,-5.467564E-2,1.5393323E-2,-1.0662317E-2,3.6625963E-2,3.750012E-2,2.957532E-2,-1.1061224E-2,-2.8754322E-2,1.9337216E-2,7.5788577E-3,6.242908E-2,-4.0291272E-2,2.8083953E-3,-1.5080199E-3,-7.534949E-2,5.494586E-2,1.1608247E-2,2.4499977E-3,2.6750328E-2,-1.4993664E-3,-4.8308343E-2,1.14190625E-2,-3.8599716E-3,-4.1177765E-2,-1.4991789E-2,1.1222545E-2,-2.954493E-2,1.0726387E-3,3.8901776E-2,-1.2122691E-4,-4.4325896E-2,6.7609646E-3,-2.0347748E-2,8.4321145E-3,2.671348E-2,-9.841885E-3,-4.5926098E-2,2.3243748E-2,-1.6487395E-2,-4.215594E-3,1.6498178E-2,-1.6337483E-5,-1.0806608E-2,-1.6590662E-2,1.43539915E-2,2.636147E-2,1.3965669E-3,1.0793761E-2,-5.7048965E-3,9.788291E-3,2.267085E-2,5.3800573E-3,-2.9968672E-2,-6.8117892E-3,1.6770389E-2,1.3201729E-2,-1.9170292E-2,-1.8365476E-2,-5.5815823E-2,-1.2892816E-2,2.1290299E-2,-4.661686E-3,3.819909E-3,1.889619E-2,1.1011888E-3,-3.1771453E-3,9.976269E-3,-3.783242E-3,-2.1211652E-2],"categories":[],"categories_nodes":[],"categories_segments":[],"categories_sizes":[],"default_left":[0,0,0,0,0,0,0,0,0,0,0,0,0,0,0,0,0,0,0,0,0,0,0,0,0,0,0,0,0,0,0,0,0,0,0,0,0,0,0,0,0,0,0,0,0,0,0,0,0,0,0,0,0,0,0,0,0,0,0,0,0,0,0,0,0,0,0,0,0,0,0,0,0,0,0,0,0,0,0,0,0,0,0,0,0,0,0,0,0,0,0,0,0,0,0,0,0,0,0,0,0,0,0,0,0,0,0,0,0],"id":13,"left_children":[1,3,5,7,9,11,13,15,17,19,21,23,25,27,29,-1,31,33,35,37,39,41,43,45,47,49,51,53,55,57,59,61,63,65,67,69,71,-1,-1,73,75,-1,-1,-1,77,79,81,83,85,87,89,91,93,95,97,-1,99,101,103,105,107,-1,-1,-1,-1,-1,-1,-1,-1,-1,-1,-1,-1,-1,-1,-1,-1,-1,-1,-1,-1,-1,-1,-1,-1,-1,-1,-1,-1,-1,-1,-1,-1,-1,-1,-1,-1,-1,-1,-1,-1,-1,-1,-1,-1,-1,-1,-1,-1],"loss_changes":[3.880244E-3,3.0678924E-2,8.535942E-3,4.030391E-2,5.3964116E-2,2.334575E-2,1.7306682E-2,1.5965588E-3,6.128582E-2,4.5319162E-2,3.364198E-3,9.934157E-3,6.979815E-2,6.860352E-2,1.8975755E-2,0E0,2.2565113E-2,7.6806135E-2,2.9039338E-2,5.770482E-3,4.621864E-2,9.457741E-3,1.4371365E-2,3.6282953E-2,4.8153058E-2,8.022668E-2,2.6747182E-2,5.2160725E-2,5.209876E-2,1.124816E-2,2.7362837E-2,2.3822472E-3,1.3542548E-4,6.821697E-2,3.98862E-2,3.0931458E-2,2.598231E-2,0E0,0E0,1.0131337E-3,3.3717252E-2,0E0,0E0,0E0,3.3829182E-2,2.8496401E-2,5.027504E-2,6.1620228E-2,7.405128E-2,6.2619805E-2,1.3198465E-2,9.202313E-2,4.5972124E-2,5.3927314E-2,2.30264E-2,0E0,6.137156E-2,9.631885E-3,2.5695285E-2,2.4364304E-2,1.1101201E-2,0E0,0E0,0E0,0E0,0E0,0E0,0E0,0E0,0E0,0E0,0E0,0E0,0E0,0E0,0E0,0E0,0E0,0E0,0E0,0E0,0E0,0E0,0E0,0E0,0E0,0E0,0E0,0E0,0E0,0E0,0E0,0E0,0E0,0E0,0E0,0E0,0E0,0E0,0E0,0E0,0E0,0E0,0E0,0E0,0E0,0E0,0E0,0E0],"parents":[2147483647,0,0,1,1,2,2,3,3,4,4,5,5,6,6,7,7,8,8,9,9,10,10,11,11,12,12,13,13,14,14,16,16,17,17,18,18,19,19,20,20,21,21,22,22,23,23,24,24,25,25,26,26,27,27,28,28,29,29,30,30,31,31,32,32,33,33,34,34,35,35,36,36,39,39,40,40,44,44,45,45,46,46,47,47,48,48,49,49,50,50,51,51,52,52,53,53,54,54,56,56,57,57,58,58,59,59,60,60],"right_children":[2,4,6,8,10,12,14,16,18,20,22,24,26,28,30,-1,32,34,36,38,40,42,44,46,48,50,52,54,56,58,60,62,64,66,68,70,72,-1,-1,74,76,-1,-1,-1,78,80,82,84,86,88,90,92,94,96,98,-1,100,102,104,106,108,-1,-1,-1,-1,-1,-1,-1,-1,-1,-1,-1,-1,-1,-1,-1,-1,-1,-1,-1,-1,-1,-1,-1,-1,-1,-1,-1,-1,-1,-1,-1,-1,-1,-1,-1,-1,-1,-1,-1,-1,-1,-1,-1,-1,-1,-1,-1,-1],"split_conditions":[-1.183885E0,1E0,8E0,-1.0943547E0,7E0,5E0,9E0,1E0,1.9194463E-1,1E0,-6.6558826E-1,9.1169715E-1,9.1169715E-1,1.2609608E0,1E0,-4.2301778E-2,5E0,-2.3682183E-1,1.0494776E0,-6.6558826E-1,-6.6558826E-1,-1.0943547E0,-2.3682183E-1,-1.0943547E0,-6.6558826E-1,2.1316977E-1,1.9194463E-1,-1.3609391E-1,-1.0943547E0,9.1169715E-1,1.2609608E0,4E0,8E0,5E0,2E0,1E0,7E0,5.7207944E-4,2.6639214E-2,2E0,6E0,1.5393323E-2,-1.0662317E-2,3.6625963E-2,1.1E1,-1.3609391E-1,2.1316977E-1,4E0,-2.3682183E-1,-4.853576E-1,-6.6558826E-1,-6.6558826E-1,7E0,-2.3682183E-1,9.1169715E-1,5.494586E-2,6.207111E-1,1E1,1.2609608E0,1.478244E0,-2.3682183E-1,1.14190625E-2,-3.8599716E-3,-4.1177765E-2,-1.4991789E-2,1.1222545E-2,-2.954493E-2,1.0726387E-3,3.8901776E-2,-1.2122691E-4,-4.4325896E-2,6.7609646E-3,-2.0347748E-2,8.4321145E-3,2.671348E-2,-9.841885E-3,-4.5926098E-2,2.3243748E-2,-1.6487395E-2,-4.215594E-3,1.6498178E-2,-1.6337483E-5,-1.0806608E-2,-1.6590662E-2,1.43539915E-2,2.636147E-2,1.3965669E-3,1.0793761E-2,-5.7048965E-3,9.788291E-3,2.267085E-2,5.3800573E-3,-2.9968672E-2,-6.8117892E-3,1.6770389E-2,1.3201729E-2,-1.9170292E-2,-1.8365476E-2,-5.5815823E-2,-1.2892816E-2,2.1290299E-2,-4.661686E-3,3.819909E-3,1.889619E-2,1.1011888E-3,-3.1771453E-3,9.976269E-3,-3.783242E-3,-2.1211652E-2],"split_indices":[0,2,3,1,3,3,3,3,1,3,1,0,0,0,2,0,3,1,1,1,1,1,1,1,1,0,1,0,1,0,0,3,3,3,3,3,3,0,0,3,3,0,0,0,3,0,0,3,1,0,1,1,3,1,0,0,1,3,0,1,1,0,0,0,0,0,0,0,0,0,0,0,0,0,0,0,0,0,0,0,0,0,0,0,0,0,0,0,0,0,0,0,0,0,0,0,0,0,0,0,0,0,0,0,0,0,0,0,0],"split_type":[0,0,0,0,0,0,0,0,0,0,0,0,0,0,0,0,0,0,0,0,0,0,0,0,0,0,0,0,0,0,0,0,0,0,0,0,0,0,0,0,0,0,0,0,0,0,0,0,0,0,0,0,0,0,0,0,0,0,0,0,0,0,0,0,0,0,0,0,0,0,0,0,0,0,0,0,0,0,0,0,0,0,0,0,0,0,0,0,0,0,0,0,0,0,0,0,0,0,0,0,0,0,0,0,0,0,0,0,0],"sum_hessian":[7.93E2,8.4E1,7.09E2,4.6E1,3.8E1,4.84E2,2.25E2,6E0,4E1,2.4E1,1.4E1,3.07E2,1.77E2,5.6E1,1.69E2,1E0,5E0,2.3E1,1.7E1,4E0,2E1,4E0,1E1,2.06E2,1.01E2,1.2E2,5.7E1,3.8E1,1.8E1,8E1,8.9E1,2E0,3E0,1.3E1,1E1,6E0,1.1E1,1E0,3E0,3E0,1.7E1,3E0,1E0,3E0,7E0,2.4E1,1.82E2,2.8E1,7.3E1,8.1E1,3.9E1,2.5E1,3.2E1,1.7E1,2.1E1,1E0,1.7E1,5E1,3E1,7.5E1,1.4E1,1E0,1E0,1E0,2E0,7E0,6E0,4E0,6E0,2E0,4E0,6E0,5E0,2E0,1E0,1.5E1,2E0,5E0,2E0,9E0,1.5E1,1.27E2,5.5E1,2.1E1,7E0,1.2E1,6.1E1,3.9E1,4.2E1,1.3E1,2.6E1,1.3E1,1.2E1,2.2E1,1E1,1E1,7E0,2E1,1E0,9E0,8E0,1.8E1,3.2E1,1.1E1,1.9E1,6E1,1.5E1,6E0,8E0],"tree_param":{"num_deleted":"0","num_feature":"4","num_nodes":"109","size_leaf_vector":"1"}},{"base_weights":[-1.0844579E-4,-2.7369359E-3,2.2986257E-3,-1.8657815E-2,3.0157275E-3,1.3957311E-2,-1.5452825E-3,1.2783553E-2,-3.2764472E-2,1.4533344E-2,-7.063095E-3,-2.5917435E-2,2.6399227E-2,-9.539018E-3,6.060847E-3,-3.7890248E-2,4.9449325E-2,-3.9408546E-2,4.4673722E-2,-4.6023545E-3,4.0243696E-2,1.2256156E-2,-1.7139236E-2,2.7605841E-2,-7.7447064E-2,-2.320254E-2,5.2600194E-2,1.1989984E-2,-2.042107E-2,-7.894909E-3,1.7727496E-2,8.747929E-3,-1.01532474E-1,9.278088E-2,-2.1729179E-2,-1.3316526E-2,-6.58998E-2,5.2945614E-3,3.623543E-2,-3.794589E-2,1.2486552E-2,7.829599E-2,9.257722E-3,-1.8985773E-3,4.7297735E-2,-3.2105163E-2,9.942943E-3,1.7288658E-3,6.8663225E-2,-1.762232E-1,3.2392945E-2,-8.079408E-2,-3.8233E-3,1.0530425E-1,3.2332066E-2,-6.488107E-2,1.9747594E-2,-1.0320023E-2,-8.317621E-2,2.6631974E-2,-2.9490229E-2,4.7357347E-2,-5.738337E-3,-8.217312E-3,4.4678953E-2,-6.72727E-2,4.7649075E-3,-5.9030885E-3,3.973595E-2,-2.8181085E-2,1.2114863E-2,3.8615558E-3,-9.687595E-3,-4.059254E-2,-6.929885E-3,1.0300168E-2,-1.6629415E-2,5.047532E-3,-3.81786E-2,-2.889635E-3,1.50738E-2,2.7280493E-2,-1.341045E-2,1.799323E-2,-4.9568824E-3,-1.8064465E-2,2.628576E-3,2.8209196E-2,-5.8632786E-3,1.9693861E-3,-1.8150322E-2,1.1912161E-2,-1.8393852E-2,5.3024055E-3,-2.7569474E-3,3.7387196E-2,7.055113E-3,2.2706456E-2,-6.924694E-2,1.50738545E-2,-1.120897E-2,-3.859413E-4,-5.591262E-2,8.570255E-3,-1.9223452E-2,5.0998826E-2,1.5142768E-2,-2.1485232E-3,2.364182E-2,3.6452204E-2,-4.2556506E-2,1.0722967E-2,1.451428E-3,-2.198825E-2,-4.262514E-4,-5.2471746E-2,-8.6981375E-3,1.9062644E-2,3.5998656E-3,-2.8214352E-3,-1.9968793E-2,-4.3470007E-3,2.1651607E-2,2.6152069E-2,-3.4277348E-3],"categories":[],"categories_nodes":[],"categories_segments":[],"categories_sizes":[],"default_left":[0,0,0,0,0,0,0,0,0,0,0,0,0,0,0,0,0,0,0,0,0,0,0,0,0,0,0,0,0,0,0,0,0,0,0,0,0,0,0,0,0,0,0,0,0,0,0,0,0,0,0,0,0,0,0,0,0,0,0,0,0,0,0,0,0,0,0,0,0,0,0,0,0,0,0,0,0,0,0,0,0,0,0,0,0,0,0,0,0,0,0,0,0,0,0,0,0,0,0,0,0,0,0,0,0,0,0,0,0,0,0,0,0,0,0,0,0,0,0,0,0,0,0,0,0],"id":14,"left_children":[1,3,5,7,9,11,13,15,17,19,21,23,25,27,29,31,33,35,37,39,41,43,45,47,49,51,53,55,57,59,61,63,65,67,69,71,73,75,-1,77,79,81,83,85,87,89,91,93,95,97,99,101,103,105,107,109,111,113,115,117,119,121,123,-1,-1,-1,-1,-1,-1,-1,-1,-1,-1,-1,-1,-1,-1,-1,-1,-1,-1,-1,-1,-1,-1,-1,-1,-1,-1,-1,-1,-1,-1,-1,-1,-1,-1,-1,-1,-1,-1,-1,-1,-1,-1,-1,-1,-1,-1,-1,-1,-1,-1,-1,-1,-1,-1,-1,-1,-1,-1,-1,-1,-1,-1],"loss_changes":[5.0299005E-3,3.4859505E-2,1.8619757E-2,4.5215636E-2,3.260617E-2,5.1784385E-2,1.9088648E-2,6.1329454E-2,3.7775867E-2,6.463532E-2,2.9409586E-2,7.108885E-2,1.0388999E-1,3.6089636E-2,2.6353482E-2,4.2442396E-2,6.0617287E-2,4.405112E-2,1.7343633E-2,4.377896E-2,6.530406E-2,2.5882017E-2,4.0444896E-2,1.3693023E-2,1.4675283E-1,3.0941349E-2,5.2142352E-2,3.2290705E-2,6.379866E-2,5.5961195E-2,6.14572E-2,4.9673606E-2,9.000987E-2,5.6143783E-2,3.9673228E-2,1.7311499E-2,9.1936946E-2,1.0720379E-2,0E0,1.2933142E-1,4.30786E-2,4.2928994E-2,4.283381E-2,2.4151469E-2,4.869358E-2,7.0673235E-2,7.878606E-2,1.7293943E-3,9.7012855E-3,1.13750994E-1,1.0594973E-2,5.8521863E-2,4.476805E-2,4.107654E-2,7.214634E-2,8.897169E-2,1.1274438E-2,4.977311E-2,6.4510666E-2,1.4899991E-2,3.362632E-2,6.0899913E-2,2.741759E-2,0E0,0E0,0E0,0E0,0E0,0E0,0E0,0E0,0E0,0E0,0E0,0E0,0E0,0E0,0E0,0E0,0E0,0E0,0E0,0E0,0E0,0E0,0E0,0E0,0E0,0E0,0E0,0E0,0E0,0E0,0E0,0E0,0E0,0E0,0E0,0E0,0E0,0E0,0E0,0E0,0E0,0E0,0E0,0E0,0E0,0E0,0E0,0E0,0E0,0E0,0E0,0E0,0E0,0E0,0E0,0E0,0E0,0E0,0E0,0E0,0E0,0E0],"parents":[2147483647,0,0,1,1,2,2,3,3,4,4,5,5,6,6,7,7,8,8,9,9,10,10,11,11,12,12,13,13,14,14,15,15,16,16,17,17,18,18,19,19,20,20,21,21,22,22,23,23,24,24,25,25,26,26,27,27,28,28,29,29,30,30,31,31,32,32,33,33,34,34,35,35,36,36,37,37,39,39,40,40,41,41,42,42,43,43,44,44,45,45,46,46,47,47,48,48,49,49,50,50,51,51,52,52,53,53,54,54,55,55,56,56,57,57,58,58,59,59,60,60,61,61,62,62],"right_children":[2,4,6,8,10,12,14,16,18,20,22,24,26,28,30,32,34,36,38,40,42,44,46,48,50,52,54,56,58,60,62,64,66,68,70,72,74,76,-1,78,80,82,84,86,88,90,92,94,96,98,100,102,104,106,108,110,112,114,116,118,120,122,124,-1,-1,-1,-1,-1,-1,-1,-1,-1,-1,-1,-1,-1,-1,-1,-1,-1,-1,-1,-1,-1,-1,-1,-1,-1,-1,-1,-1,-1,-1,-1,-1,-1,-1,-1,-1,-1,-1,-1,-1,-1,-1,-1,-1,-1,-1,-1,-1,-1,-1,-1,-1,-1,-1,-1,-1,-1,-1,-1,-1,-1,-1],"split_conditions":[1E0,-6.6558826E-1,-6.6558826E-1,-4.853576E-1,6.207111E-1,-4.853576E-1,6.207111E-1,-1.183885E0,1.1E1,2.1316977E-1,4E0,4E0,4E0,4E0,5E0,6E0,8E0,5E0,1.6102245E0,4E0,9.1169715E-1,3E0,9.1169715E-1,-8.346213E-1,1E1,2.1316977E-1,2.1316977E-1,-1.183885E0,1.2609608E0,1.0494776E0,8E0,5E0,8E0,5E0,1E1,5.624334E-1,2.1316977E-1,9.1169715E-1,3.623543E-2,-4.853576E-1,-4.853576E-1,1E1,4E0,-8.346213E-1,-1.3609391E-1,-4.853576E-1,1.6102245E0,-1.183885E0,1E0,-1.183885E0,-8.346213E-1,2E0,1.2609608E0,8E0,1.2609608E0,-2.3682183E-1,2.1316977E-1,5E0,7E0,-8.346213E-1,3E0,-4.853576E-1,-1.183885E0,-8.217312E-3,4.4678953E-2,-6.72727E-2,4.7649075E-3,-5.9030885E-3,3.973595E-2,-2.8181085E-2,1.2114863E-2,3.8615558E-3,-9.687595E-3,-4.059254E-2,-6.929885E-3,1.0300168E-2,-1.6629415E-2,5.047532E-3,-3.81786E-2,-2.889635E-3,1.50738E-2,2.7280493E-2,-1.341045E-2,1.799323E-2,-4.9568824E-3,-1.8064465E-2,2.628576E-3,2.8209196E-2,-5.8632786E-3,1.9693861E-3,-1.8150322E-2,1.1912161E-2,-1.8393852E-2,5.3024055E-3,-2.7569474E-3,3.7387196E-2,7.055113E-3,2.2706456E-2,-6.924694E-2,1.50738545E-2,-1.120897E-2,-3.859413E-4,-5.591262E-2,8.570255E-3,-1.9223452E-2,5.0998826E-2,1.5142768E-2,-2.1485232E-3,2.364182E-2,3.6452204E-2,-4.2556506E-2,1.0722967E-2,1.451428E-3,-2.198825E-2,-4.262514E-4,-5.2471746E-2,-8.6981375E-3,1.9062644E-2,3.5998656E-3,-2.8214352E-3,-1.9968793E-2,-4.3470007E-3,2.1651607E-2,2.6152069E-2,-3.4277348E-3],"split_indices":[2,1,1,0,1,0,1,0,3,0,3,3,3,3,3,3,3,3,0,3,0,3,0,0,3,0,0,0,0,1,3,3,3,3,3,0,0,0,0,0,0,3,3,0,0,0,0,0,3,0,0,3,0,3,0,1,0,3,3,0,3,0,0,0,0,0,0,0,0,0,0,0,0,0,0,0,0,0,0,0,0,0,0,0,0,0,0,0,0,0,0,0,0,0,0,0,0,0,0,0,0,0,0,0,0,0,0,0,0,0,0,0,0,0,0,0,0,0,0,0,0,0,0,0,0],"split_type":[0,0,0,0,0,0,0,0,0,0,0,0,0,0,0,0,0,0,0,0,0,0,0,0,0,0,0,0,0,0,0,0,0,0,0,0,0,0,0,0,0,0,0,0,0,0,0,0,0,0,0,0,0,0,0,0,0,0,0,0,0,0,0,0,0,0,0,0,0,0,0,0,0,0,0,0,0,0,0,0,0,0,0,0,0,0,0,0,0,0,0,0,0,0,0,0,0,0,0,0,0,0,0,0,0,0,0,0,0,0,0,0,0,0,0,0,0,0,0,0,0,0,0,0,0],"sum_hessian":[7.93E2,3.79E2,4.14E2,1E2,2.79E2,1.02E2,3.12E2,3.1E1,6.9E1,1.3E2,1.49E2,2.4E1,7.8E1,1.52E2,1.6E2,1.3E1,1.8E1,6.4E1,5E0,7.5E1,5.5E1,5.1E1,9.8E1,1.2E1,1.2E1,2.7E1,5.1E1,5.1E1,1.01E2,7.3E1,8.7E1,8E0,5E0,1.1E1,7E0,3.3E1,3.1E1,4E0,1E0,2.5E1,5E1,2.4E1,3.1E1,3.7E1,1.4E1,6.3E1,3.5E1,8E0,4E0,6E0,6E0,6E0,2.1E1,1.3E1,3.8E1,4E0,4.7E1,8.8E1,1.3E1,2.8E1,4.5E1,3.8E1,4.9E1,7E0,1E0,2E0,3E0,3E0,8E0,3E0,4E0,1.4E1,1.9E1,1.1E1,2E1,3E0,1E0,1.6E1,9E0,3.2E1,1.8E1,2.2E1,2E0,1E1,2.1E1,5E0,3.2E1,8E0,6E0,2.7E1,3.6E1,2.5E1,1E1,3E0,5E0,1E0,3E0,1E0,5E0,5E0,1E0,4E0,2E0,1.4E1,7E0,5E0,8E0,2.1E1,1.7E1,1E0,3E0,2.2E1,2.5E1,1E1,7.8E1,4E0,9E0,7E0,2.1E1,3E1,1.5E1,1.1E1,2.7E1,2E0,4.7E1],"tree_param":{"num_deleted":"0","num_feature":"4","num_nodes":"125","size_leaf_vector":"1"}},{"base_weights":[-1.4408924E-4,-1.3623217E-3,3.6826725E-3,9.152491E-6,-1.3774316E-2,7.684361E-3,-1.5139421E-2,-4.191665E-3,2.9852516E-3,-2.9513476E-2,2.1742478E-2,-3.085503E-3,1.5360668E-2,1.8487459E-2,-3.683642E-2,2.4312998E-3,-2.2979232E-2,-1.5082165E-3,1.6888252E-2,2.1247964E-2,-5.3001292E-2,4.31577E-2,6.966061E-3,1.2593472E-2,-2.1699587E-2,3.3147737E-2,6.3644806E-3,3.2236952E-2,3.3778022E-3,-4.6765376E-2,-1.8401653E-2,-1.0296244E-2,1.4399429E-2,-6.647464E-2,-7.970111E-3,-4.994592E-3,1.6222844E-2,4.6901632E-2,3.4844452E-3,-7.5262934E-3,9.506518E-2,-3.343759E-2,-3.672677E-2,-3.3973955E-2,5.1680963E-2,2.742534E-2,-3.659737E-2,-8.473159E-2,-3.1826424E-3,1.1508089E-1,8.880544E-3,-5.8320757E-2,1.9669633E-2,-1.1603854E-1,3.5638824E-2,-2.4946906E-2,-2.6886065E-2,1.1381341E-2,-2.4528427E-2,-7.4047516E-3,-1.3829719E-3,-1.6200275E-4,1.5441251E-2,-8.71914E-3,-3.1523377E-2,2.30631E-3,-2.4404535E-2,1.475534E-4,-9.981888E-3,-2.2406098E-3,3.8693555E-2,-2.6448367E-3,2.6198927E-2,-2.176316E-2,6.5975143E-3,1.585268E-2,-2.7161106E-2,-4.055254E-3,6.312199E-2,-4.5076016E-4,-1.2528743E-2,-3.0740805E-2,3.0059072E-3,1.9615425E-2,8.292297E-3,3.5551216E-3,2.2404667E-2,-2.1003794E-2,1.2412128E-3,-4.40785E-2,-9.140169E-3,1.1065223E-2,-7.262166E-3,3.5067024E-3,4.622996E-2,-5.608669E-3,2.0945018E-2,5.9193047E-3,-3.1722147E-2,1.8298132E-2,5.2571256E-4,-2.461517E-3,-4.975583E-2,4.884849E-2,1.9911139E-3,-1.0955795E-2,4.6246202E-4,1.6888797E-2,-1.6461299E-3],"categories":[],"categories_nodes":[],"categories_segments":[],"categories_sizes":[],"default_left":[0,0,0,0,0,0,0,0,0,0,0,0,0,0,0,0,0,0,0,0,0,0,0,0,0,0,0,0,0,0,0,0,0,0,0,0,0,0,0,0,0,0,0,0,0,0,0,0,0,0,0,0,0,0,0,0,0,0,0,0,0,0,0,0,0,0,0,0,0,0,0,0,0,0,0,0,0,0,0,0,0,0,0,0,0,0,0,0,0,0,0,0,0,0,0,0,0,0,0,0,0,0,0,0,0,0,0,0,0],"id":15,"left_children":[1,3,5,7,9,11,13,15,17,19,21,23,25,27,29,31,33,35,37,39,41,-1,43,45,47,49,51,-1,53,55,57,59,61,63,65,67,69,71,73,75,77,79,-1,81,83,85,87,89,91,93,95,97,99,101,103,105,-1,107,-1,-1,-1,-1,-1,-1,-1,-1,-1,-1,-1,-1,-1,-1,-1,-1,-1,-1,-1,-1,-1,-1,-1,-1,-1,-1,-1,-1,-1,-1,-1,-1,-1,-1,-1,-1,-1,-1,-1,-1,-1,-1,-1,-1,-1,-1,-1,-1,-1,-1,-1],"loss_changes":[3.706554E-3,1.0264832E-2,1.457781E-2,6.8136277E-3,3.418197E-2,1.3192369E-2,2.548749E-2,2.8176911E-2,1.9954259E-2,5.1201742E-2,3.3282317E-2,1.9827206E-2,1.46705005E-2,1.8457118E-2,2.9832367E-3,2.573884E-2,3.7987035E-2,1.5040773E-2,3.1215467E-2,3.0451987E-2,3.5292447E-2,0E0,3.4707125E-2,2.79986E-2,3.591229E-2,6.0614944E-2,5.5367906E-2,0E0,5.4217894E-2,9.919602E-3,1.7913947E-2,6.594238E-3,4.8210658E-2,1.8608756E-2,5.232787E-2,3.1511296E-2,1.0781753E-1,5.483145E-2,7.8984566E-2,5.99078E-2,5.2940518E-2,6.317785E-3,0E0,3.1160332E-2,1.1576489E-3,2.0459648E-2,1.2540133E-2,1.914896E-2,2.1952506E-2,2.6438423E-2,4.3314826E-2,4.2799503E-2,3.913513E-2,1.4754087E-2,3.949523E-2,3.121647E-3,0E0,5.612382E-3,0E0,0E0,0E0,0E0,0E0,0E0,0E0,0E0,0E0,0E0,0E0,0E0,0E0,0E0,0E0,0E0,0E0,0E0,0E0,0E0,0E0,0E0,0E0,0E0,0E0,0E0,0E0,0E0,0E0,0E0,0E0,0E0,0E0,0E0,0E0,0E0,0E0,0E0,0E0,0E0,0E0,0E0,0E0,0E0,0E0,0E0,0E0,0E0,0E0,0E0,0E0],"parents":[2147483647,0,0,1,1,2,2,3,3,4,4,5,5,6,6,7,7,8,8,9,9,10,10,11,11,12,12,13,13,14,14,15,15,16,16,17,17,18,18,19,19,20,20,22,22,23,23,24,24,25,25,26,26,28,28,29,29,30,30,31,31,32,32,33,33,34,34,35,35,36,36,37,37,38,38,39,39,40,40,41,41,43,43,44,44,45,45,46,46,47,47,48,48,49,49,50,50,51,51,52,52,53,53,54,54,55,55,57,57],"right_children":[2,4,6,8,10,12,14,16,18,20,22,24,26,28,30,32,34,36,38,40,42,-1,44,46,48,50,52,-1,54,56,58,60,62,64,66,68,70,72,74,76,78,80,-1,82,84,86,88,90,92,94,96,98,100,102,104,106,-1,108,-1,-1,-1,-1,-1,-1,-1,-1,-1,-1,-1,-1,-1,-1,-1,-1,-1,-1,-1,-1,-1,-1,-1,-1,-1,-1,-1,-1,-1,-1,-1,-1,-1,-1,-1,-1,-1,-1,-1,-1,-1,-1,-1,-1,-1,-1,-1,-1,-1,-1,-1],"split_conditions":[9E0,8E0,1.2609608E0,-1.3609391E-1,1.2609608E0,-4.853576E-1,1E1,6E0,6E0,-4.853576E-1,-1.0943547E0,-8.346213E-1,-2.3682183E-1,-1.0943547E0,1.0494776E0,3E0,-6.6558826E-1,1.478244E0,-6.6558826E-1,6.207111E-1,6.207111E-1,4.31577E-2,6.207111E-1,1.0494776E0,-6.6558826E-1,-1.3609391E-1,1.9194463E-1,3.2236952E-2,-2.3682183E-1,-2.3682183E-1,1E0,-2.3682183E-1,1.0494776E0,-8.346213E-1,1.478244E0,5E0,5E0,1E0,-2.3682183E-1,-2.3682183E-1,-1.183885E0,-1.3609391E-1,-3.672677E-2,1E0,1.0494776E0,1.9194463E-1,1.1E1,1E1,1.9194463E-1,1E1,5.624334E-1,1E0,1E1,-6.6558826E-1,1.9194463E-1,1.1E1,-2.6886065E-2,1.1E1,-2.4528427E-2,-7.4047516E-3,-1.3829719E-3,-1.6200275E-4,1.5441251E-2,-8.71914E-3,-3.1523377E-2,2.30631E-3,-2.4404535E-2,1.475534E-4,-9.981888E-3,-2.2406098E-3,3.8693555E-2,-2.6448367E-3,2.6198927E-2,-2.176316E-2,6.5975143E-3,1.585268E-2,-2.7161106E-2,-4.055254E-3,6.312199E-2,-4.5076016E-4,-1.2528743E-2,-3.0740805E-2,3.0059072E-3,1.9615425E-2,8.292297E-3,3.5551216E-3,2.2404667E-2,-2.1003794E-2,1.2412128E-3,-4.40785E-2,-9.140169E-3,1.1065223E-2,-7.262166E-3,3.5067024E-3,4.622996E-2,-5.608669E-3,2.0945018E-2,5.9193047E-3,-3.1722147E-2,1.8298132E-2,5.2571256E-4,-2.461517E-3,-4.975583E-2,4.884849E-2,1.9911139E-3,-1.0955795E-2,4.6246202E-4,1.6888797E-2,-1.6461299E-3],"split_indices":[3,3,0,0,0,0,3,3,3,0,1,0,1,1,1,3,1,1,1,1,1,0,1,1,1,0,1,0,1,1,2,1,1,0,1,3,3,2,1,1,0,0,0,2,1,1,3,3,1,3,0,2,3,1,1,3,0,3,0,0,0,0,0,0,0,0,0,0,0,0,0,0,0,0,0,0,0,0,0,0,0,0,0,0,0,0,0,0,0,0,0,0,0,0,0,0,0,0,0,0,0,0,0,0,0,0,0,0,0],"split_type":[0,0,0,0,0,0,0,0,0,0,0,0,0,0,0,0,0,0,0,0,0,0,0,0,0,0,0,0,0,0,0,0,0,0,0,0,0,0,0,0,0,0,0,0,0,0,0,0,0,0,0,0,0,0,0,0,0,0,0,0,0,0,0,0,0,0,0,0,0,0,0,0,0,0,0,0,0,0,0,0,0,0,0,0,0,0,0,0,0,0,0,0,0,0,0,0,0,0,0,0,0,0,0,0,0,0,0,0,0],"sum_hessian":[7.93E2,6.02E2,1.91E2,5.43E2,5.9E1,1.58E2,3.3E1,2.25E2,3.18E2,4.1E1,1.8E1,6.6E1,9.2E1,1.3E1,2E1,1.67E2,5.8E1,2.41E2,7.7E1,1.3E1,2.8E1,1E0,1.7E1,3.6E1,3E1,3E1,6.2E1,1E0,1.2E1,1.2E1,8E0,8.1E1,8.6E1,1.4E1,4.4E1,2.02E2,3.9E1,2.3E1,5.4E1,1E1,3E0,2.3E1,5E0,9E0,8E0,2.8E1,8E0,6E0,2.4E1,6E0,2.4E1,1E1,5.2E1,2E0,1E1,9E0,3E0,6E0,2E0,2.2E1,5.9E1,6.2E1,2.4E1,8E0,6E0,3.7E1,7E0,1.7E2,3.2E1,3.3E1,6E0,1E1,1.3E1,1E1,4.4E1,6E0,4E0,2E0,1E0,5E0,1.8E1,3E0,6E0,4E0,4E0,2.2E1,6E0,4E0,4E0,2E0,4E0,8E0,1.6E1,2E0,4E0,1.7E1,7E0,4E0,6E0,1.5E1,3.7E1,1E0,1E0,1E0,9E0,6E0,3E0,1E0,5E0],"tree_param":{"num_deleted":"0","num_feature":"4","num_nodes":"109","size_leaf_vector":"1"}},{"base_weights":[-7.616807E-5,-2.3287663E-3,1.9866356E-3,-1.864655E-2,-7.746984E-4,1.3835248E-2,3.992551E-4,-2.6783448E-2,-5.825703E-3,3.0890068E-2,-3.1106358E-3,4.912088E-2,-4.7614495E-3,2.3690194E-3,-1.723294E-2,-3.400598E-2,1.3284799E-2,6.39457E-2,2.7113515E-3,-2.3538154E-2,-9.534709E-4,1.5202715E-2,1.5555423E-1,-3.6033954E-2,5.2968267E-2,-5.5509685E-3,9.63439E-3,-3.6574487E-2,2.6109824E-2,3.7219122E-2,-5.9654474E-2,4.4073373E-2,-2.2400819E-2,7.387258E-3,4.832285E-2,-3.982206E-2,6.605958E-2,-3.502298E-2,2.8598376E-2,-1.2371254E-2,3.5001885E-3,3.2889828E-2,-4.9442396E-4,7.1127824E-2,6.1325025E-2,3.2265294E-2,-6.366275E-2,-1.7600482E-2,1.05888866E-1,4.6503652E-4,-4.510686E-2,1.9148795E-2,-9.560533E-3,4.045291E-3,-5.175258E-2,-3.9122794E-3,5.593764E-2,-2.6379835E-2,1.35195805E-2,2.3897981E-2,-8.766435E-3,-1.3314844E-3,-1.7053941E-2,4.963106E-3,-8.506161E-3,3.2260588E-3,-4.336733E-2,3.9016367E-3,2.6800584E-2,-7.189225E-3,-2.9445026E-2,9.611636E-3,-8.09347E-3,5.4244376E-3,-2.8690808E-3,-1.1248475E-2,6.0349023E-3,3.0438745E-2,1.5687749E-3,-1.9140843E-2,2.503593E-2,-3.552914E-2,-1.0661295E-2,8.665973E-3,-1.4419697E-2,5.9389457E-2,-3.797798E-3,-7.6863263E-3,1.757447E-3,8.735888E-3,-3.0961009E-2,2.4754021E-2,2.4555973E-3,1.082219E-2,-6.302544E-3,2.7630536E-2,-6.507482E-3,-1.9685803E-2,4.995782E-3,4.7796723E-2,-5.184224E-3],"categories":[],"categories_nodes":[],"categories_segments":[],"categories_sizes":[],"default_left":[0,0,0,0,0,0,0,0,0,0,0,0,0,0,0,0,0,0,0,0,0,0,0,0,0,0,0,0,0,0,0,0,0,0,0,0,0,0,0,0,0,0,0,0,0,0,0,0,0,0,0,0,0,0,0,0,0,0,0,0,0,0,0,0,0,0,0,0,0,0,0,0,0,0,0,0,0,0,0,0,0,0,0,0,0,0,0,0,0,0,0,0,0,0,0,0,0,0,0,0,0],"id":16,"left_children":[1,3,5,7,9,11,13,-1,15,17,19,21,23,25,27,29,31,33,35,37,39,41,43,45,47,49,51,53,55,-1,57,59,61,63,-1,65,67,69,-1,71,73,-1,75,77,-1,79,81,83,85,87,89,91,93,95,97,-1,99,-1,-1,-1,-1,-1,-1,-1,-1,-1,-1,-1,-1,-1,-1,-1,-1,-1,-1,-1,-1,-1,-1,-1,-1,-1,-1,-1,-1,-1,-1,-1,-1,-1,-1,-1,-1,-1,-1,-1,-1,-1,-1,-1,-1],"loss_changes":[3.6940805E-3,9.621953E-3,7.799903E-3,2.9363273E-2,2.5836574E-2,3.2387502E-2,1.27872005E-2,0E0,1.6069401E-2,2.2181785E-2,1.4298853E-2,5.900556E-2,6.1485298E-2,1.9099765E-2,3.197265E-2,5.605196E-2,2.0764045E-2,5.9239116E-2,4.035246E-2,4.565852E-2,1.5044323E-2,2.0806145E-2,1.961425E-3,4.356868E-2,4.6678178E-2,3.7857957E-2,3.1777766E-2,1.6239151E-2,1.4742856E-2,0E0,3.6536973E-2,2.8410887E-2,5.3162803E-3,3.0871662E-3,0E0,4.922813E-2,6.2473845E-3,1.7893296E-2,0E0,5.470615E-2,4.074658E-2,0E0,1.066817E-2,5.466462E-3,0E0,3.974715E-2,2.0436823E-2,9.88587E-3,7.891419E-2,1.9705389E-2,9.356353E-2,7.990934E-2,3.1058293E-2,2.0128243E-2,1.911534E-2,0E0,5.574087E-2,0E0,0E0,0E0,0E0,0E0,0E0,0E0,0E0,0E0,0E0,0E0,0E0,0E0,0E0,0E0,0E0,0E0,0E0,0E0,0E0,0E0,0E0,0E0,0E0,0E0,0E0,0E0,0E0,0E0,0E0,0E0,0E0,0E0,0E0,0E0,0E0,0E0,0E0,0E0,0E0,0E0,0E0,0E0,0E0],"parents":[2147483647,0,0,1,1,2,2,3,3,4,4,5,5,6,6,8,8,9,9,10,10,11,11,12,12,13,13,14,14,15,15,16,16,17,17,18,18,19,19,20,20,21,21,22,22,23,23,24,24,25,25,26,26,27,27,28,28,30,30,31,31,32,32,33,33,35,35,36,36,37,37,39,39,40,40,42,42,43,43,45,45,46,46,47,47,48,48,49,49,50,50,51,51,52,52,53,53,54,54,56,56],"right_children":[2,4,6,8,10,12,14,-1,16,18,20,22,24,26,28,30,32,34,36,38,40,42,44,46,48,50,52,54,56,-1,58,60,62,64,-1,66,68,70,-1,72,74,-1,76,78,-1,80,82,84,86,88,90,92,94,96,98,-1,100,-1,-1,-1,-1,-1,-1,-1,-1,-1,-1,-1,-1,-1,-1,-1,-1,-1,-1,-1,-1,-1,-1,-1,-1,-1,-1,-1,-1,-1,-1,-1,-1,-1,-1,-1,-1,-1,-1,-1,-1,-1,-1,-1,-1],"split_conditions":[1E0,1E0,-1.0943547E0,-1.0943547E0,2E0,2.1316977E-1,1.1E1,-2.6783448E-2,-1.3609391E-1,